digraph Tree {
node [shape=box, style="filled, rounded", color="black", fontname="helvetica"] ;
edge [fontname="helvetica"] ;
0 [label="winner_level <= 38.5\ngini = 0.5\nsamples = 4416\nvalue = [3529, 3471]\nclass = attacker", fillcolor="#fffdfc"] ;
1 [label="loser_hp <= 91.5\ngini = 0.32\nsamples = 1702\nvalue = [538, 2152]\nclass = normal", fillcolor="#6ab6ec"] ;
0 -> 1 [labeldistance=2.5, labelangle=45, headlabel="True"] ;
2 [label="winner_defense <= 36.5\ngini = 0.47\nsamples = 449\nvalue = [436, 256]\nclass = attacker", fillcolor="#f4cbad"] ;
1 -> 2 ;
3 [label="loser_defense <= 22.5\ngini = 0.43\nsamples = 179\nvalue = [88, 197]\nclass = normal", fillcolor="#91c9f1"] ;
2 -> 3 ;
4 [label="winner_hp <= 18.5\ngini = 0.35\nsamples = 60\nvalue = [78, 23]\nclass = attacker", fillcolor="#eda673"] ;
3 -> 4 ;
5 [label="winner_speed <= 9.5\ngini = 0.1\nsamples = 11\nvalue = [1, 17]\nclass = normal", fillcolor="#45a3e7"] ;
4 -> 5 ;
6 [label="gini = 0.0\nsamples = 8\nvalue = [0, 15]\nclass = normal", fillcolor="#399de5"] ;
5 -> 6 ;
7 [label="loser_attack <= 14.0\ngini = 0.44\nsamples = 3\nvalue = [1, 2]\nclass = normal", fillcolor="#9ccef2"] ;
5 -> 7 ;
8 [label="gini = 0.0\nsamples = 1\nvalue = [1, 0]\nclass = attacker", fillcolor="#e58139"] ;
7 -> 8 ;
9 [label="gini = 0.0\nsamples = 2\nvalue = [0, 2]\nclass = normal", fillcolor="#399de5"] ;
7 -> 9 ;
10 [label="winner_speed <= 43.5\ngini = 0.13\nsamples = 49\nvalue = [77, 6]\nclass = attacker", fillcolor="#e78b48"] ;
4 -> 10 ;
11 [label="loser_attack <= 16.5\ngini = 0.1\nsamples = 45\nvalue = [72, 4]\nclass = attacker", fillcolor="#e68844"] ;
10 -> 11 ;
12 [label="winner_attack <= 35.0\ngini = 0.03\nsamples = 35\nvalue = [59, 1]\nclass = attacker", fillcolor="#e5833c"] ;
11 -> 12 ;
13 [label="gini = 0.0\nsamples = 31\nvalue = [54, 0]\nclass = attacker", fillcolor="#e58139"] ;
12 -> 13 ;
14 [label="loser_level <= 2.5\ngini = 0.28\nsamples = 4\nvalue = [5, 1]\nclass = attacker", fillcolor="#ea9a61"] ;
12 -> 14 ;
15 [label="loser_type <= 7.0\ngini = 0.44\nsamples = 2\nvalue = [2, 1]\nclass = attacker", fillcolor="#f2c09c"] ;
14 -> 15 ;
16 [label="gini = 0.0\nsamples = 1\nvalue = [0, 1]\nclass = normal", fillcolor="#399de5"] ;
15 -> 16 ;
17 [label="gini = 0.0\nsamples = 1\nvalue = [2, 0]\nclass = attacker", fillcolor="#e58139"] ;
15 -> 17 ;
18 [label="gini = 0.0\nsamples = 2\nvalue = [3, 0]\nclass = attacker", fillcolor="#e58139"] ;
14 -> 18 ;
19 [label="winner_defense <= 17.5\ngini = 0.3\nsamples = 10\nvalue = [13, 3]\nclass = attacker", fillcolor="#eb9e67"] ;
11 -> 19 ;
20 [label="gini = 0.0\nsamples = 3\nvalue = [0, 3]\nclass = normal", fillcolor="#399de5"] ;
19 -> 20 ;
21 [label="gini = 0.0\nsamples = 7\nvalue = [13, 0]\nclass = attacker", fillcolor="#e58139"] ;
19 -> 21 ;
22 [label="loser_hp <= 14.0\ngini = 0.41\nsamples = 4\nvalue = [5, 2]\nclass = attacker", fillcolor="#efb388"] ;
10 -> 22 ;
23 [label="gini = 0.0\nsamples = 1\nvalue = [0, 2]\nclass = normal", fillcolor="#399de5"] ;
22 -> 23 ;
24 [label="gini = 0.0\nsamples = 3\nvalue = [5, 0]\nclass = attacker", fillcolor="#e58139"] ;
22 -> 24 ;
25 [label="winner_level <= 11.5\ngini = 0.1\nsamples = 119\nvalue = [10, 174]\nclass = normal", fillcolor="#44a3e6"] ;
3 -> 25 ;
26 [label="loser_defense <= 88.5\ngini = 0.04\nsamples = 86\nvalue = [3, 138]\nclass = normal", fillcolor="#3d9fe6"] ;
25 -> 26 ;
27 [label="loser_level <= 11.5\ngini = 0.01\nsamples = 84\nvalue = [1, 136]\nclass = normal", fillcolor="#3a9ee5"] ;
26 -> 27 ;
28 [label="winner_hp <= 31.5\ngini = 0.09\nsamples = 16\nvalue = [1, 21]\nclass = normal", fillcolor="#42a2e6"] ;
27 -> 28 ;
29 [label="gini = 0.0\nsamples = 12\nvalue = [0, 16]\nclass = normal", fillcolor="#399de5"] ;
28 -> 29 ;
30 [label="loser_level <= 10.5\ngini = 0.28\nsamples = 4\nvalue = [1, 5]\nclass = normal", fillcolor="#61b1ea"] ;
28 -> 30 ;
31 [label="gini = 0.0\nsamples = 3\nvalue = [0, 5]\nclass = normal", fillcolor="#399de5"] ;
30 -> 31 ;
32 [label="gini = 0.0\nsamples = 1\nvalue = [1, 0]\nclass = attacker", fillcolor="#e58139"] ;
30 -> 32 ;
33 [label="gini = 0.0\nsamples = 68\nvalue = [0, 115]\nclass = normal", fillcolor="#399de5"] ;
27 -> 33 ;
34 [label="winner_level <= 6.5\ngini = 0.5\nsamples = 2\nvalue = [2, 2]\nclass = attacker", fillcolor="#ffffff"] ;
26 -> 34 ;
35 [label="gini = 0.0\nsamples = 1\nvalue = [2, 0]\nclass = attacker", fillcolor="#e58139"] ;
34 -> 35 ;
36 [label="gini = 0.0\nsamples = 1\nvalue = [0, 2]\nclass = normal", fillcolor="#399de5"] ;
34 -> 36 ;
37 [label="loser_attack <= 36.0\ngini = 0.27\nsamples = 33\nvalue = [7, 36]\nclass = normal", fillcolor="#5fb0ea"] ;
25 -> 37 ;
38 [label="loser_hp <= 60.5\ngini = 0.35\nsamples = 8\nvalue = [7, 2]\nclass = attacker", fillcolor="#eca572"] ;
37 -> 38 ;
39 [label="loser_hp <= 45.5\ngini = 0.22\nsamples = 7\nvalue = [7, 1]\nclass = attacker", fillcolor="#e99355"] ;
38 -> 39 ;
40 [label="loser_hp <= 42.5\ngini = 0.38\nsamples = 4\nvalue = [3, 1]\nclass = attacker", fillcolor="#eeab7b"] ;
39 -> 40 ;
41 [label="gini = 0.0\nsamples = 3\nvalue = [3, 0]\nclass = attacker", fillcolor="#e58139"] ;
40 -> 41 ;
42 [label="gini = 0.0\nsamples = 1\nvalue = [0, 1]\nclass = normal", fillcolor="#399de5"] ;
40 -> 42 ;
43 [label="gini = 0.0\nsamples = 3\nvalue = [4, 0]\nclass = attacker", fillcolor="#e58139"] ;
39 -> 43 ;
44 [label="gini = 0.0\nsamples = 1\nvalue = [0, 1]\nclass = normal", fillcolor="#399de5"] ;
38 -> 44 ;
45 [label="gini = 0.0\nsamples = 25\nvalue = [0, 34]\nclass = normal", fillcolor="#399de5"] ;
37 -> 45 ;
46 [label="loser_attack <= 56.5\ngini = 0.25\nsamples = 270\nvalue = [348, 59]\nclass = attacker", fillcolor="#e9965b"] ;
2 -> 46 ;
47 [label="winner_hp <= 68.5\ngini = 0.12\nsamples = 229\nvalue = [321, 23]\nclass = attacker", fillcolor="#e78a47"] ;
46 -> 47 ;
48 [label="winner_speed <= 51.5\ngini = 0.36\nsamples = 51\nvalue = [56, 17]\nclass = attacker", fillcolor="#eda775"] ;
47 -> 48 ;
49 [label="loser_speed <= 55.5\ngini = 0.25\nsamples = 44\nvalue = [52, 9]\nclass = attacker", fillcolor="#ea975b"] ;
48 -> 49 ;
50 [label="loser_speed <= 33.5\ngini = 0.16\nsamples = 40\nvalue = [52, 5]\nclass = attacker", fillcolor="#e88d4c"] ;
49 -> 50 ;
51 [label="loser_defense <= 18.0\ngini = 0.09\nsamples = 29\nvalue = [42, 2]\nclass = attacker", fillcolor="#e68742"] ;
50 -> 51 ;
52 [label="loser_defense <= 11.5\ngini = 0.24\nsamples = 9\nvalue = [12, 2]\nclass = attacker", fillcolor="#e9965a"] ;
51 -> 52 ;
53 [label="gini = 0.0\nsamples = 6\nvalue = [11, 0]\nclass = attacker", fillcolor="#e58139"] ;
52 -> 53 ;
54 [label="winner_attack <= 42.0\ngini = 0.44\nsamples = 3\nvalue = [1, 2]\nclass = normal", fillcolor="#9ccef2"] ;
52 -> 54 ;
55 [label="gini = 0.0\nsamples = 2\nvalue = [0, 2]\nclass = normal", fillcolor="#399de5"] ;
54 -> 55 ;
56 [label="gini = 0.0\nsamples = 1\nvalue = [1, 0]\nclass = attacker", fillcolor="#e58139"] ;
54 -> 56 ;
57 [label="gini = 0.0\nsamples = 20\nvalue = [30, 0]\nclass = attacker", fillcolor="#e58139"] ;
51 -> 57 ;
58 [label="loser_speed <= 35.5\ngini = 0.36\nsamples = 11\nvalue = [10, 3]\nclass = attacker", fillcolor="#eda774"] ;
50 -> 58 ;
59 [label="gini = 0.0\nsamples = 1\nvalue = [0, 1]\nclass = normal", fillcolor="#399de5"] ;
58 -> 59 ;
60 [label="loser_attack <= 40.0\ngini = 0.28\nsamples = 10\nvalue = [10, 2]\nclass = attacker", fillcolor="#ea9a61"] ;
58 -> 60 ;
61 [label="gini = 0.0\nsamples = 7\nvalue = [9, 0]\nclass = attacker", fillcolor="#e58139"] ;
60 -> 61 ;
62 [label="winner_type <= 12.5\ngini = 0.44\nsamples = 3\nvalue = [1, 2]\nclass = normal", fillcolor="#9ccef2"] ;
60 -> 62 ;
63 [label="gini = 0.0\nsamples = 2\nvalue = [0, 2]\nclass = normal", fillcolor="#399de5"] ;
62 -> 63 ;
64 [label="gini = 0.0\nsamples = 1\nvalue = [1, 0]\nclass = attacker", fillcolor="#e58139"] ;
62 -> 64 ;
65 [label="gini = 0.0\nsamples = 4\nvalue = [0, 4]\nclass = normal", fillcolor="#399de5"] ;
49 -> 65 ;
66 [label="loser_defense <= 33.0\ngini = 0.44\nsamples = 7\nvalue = [4, 8]\nclass = normal", fillcolor="#9ccef2"] ;
48 -> 66 ;
67 [label="gini = 0.0\nsamples = 3\nvalue = [4, 0]\nclass = attacker", fillcolor="#e58139"] ;
66 -> 67 ;
68 [label="gini = 0.0\nsamples = 4\nvalue = [0, 8]\nclass = normal", fillcolor="#399de5"] ;
66 -> 68 ;
69 [label="winner_level <= 26.5\ngini = 0.04\nsamples = 178\nvalue = [265, 6]\nclass = attacker", fillcolor="#e6843d"] ;
47 -> 69 ;
70 [label="loser_attack <= 50.0\ngini = 0.11\nsamples = 65\nvalue = [97, 6]\nclass = attacker", fillcolor="#e78945"] ;
69 -> 70 ;
71 [label="loser_level <= 24.5\ngini = 0.04\nsamples = 57\nvalue = [90, 2]\nclass = attacker", fillcolor="#e6843d"] ;
70 -> 71 ;
72 [label="loser_speed <= 20.5\ngini = 0.02\nsamples = 54\nvalue = [88, 1]\nclass = attacker", fillcolor="#e5823b"] ;
71 -> 72 ;
73 [label="loser_speed <= 19.5\ngini = 0.09\nsamples = 16\nvalue = [19, 1]\nclass = attacker", fillcolor="#e68843"] ;
72 -> 73 ;
74 [label="gini = 0.0\nsamples = 14\nvalue = [18, 0]\nclass = attacker", fillcolor="#e58139"] ;
73 -> 74 ;
75 [label="winner_speed <= 57.5\ngini = 0.5\nsamples = 2\nvalue = [1, 1]\nclass = attacker", fillcolor="#ffffff"] ;
73 -> 75 ;
76 [label="gini = 0.0\nsamples = 1\nvalue = [1, 0]\nclass = attacker", fillcolor="#e58139"] ;
75 -> 76 ;
77 [label="gini = 0.0\nsamples = 1\nvalue = [0, 1]\nclass = normal", fillcolor="#399de5"] ;
75 -> 77 ;
78 [label="gini = 0.0\nsamples = 38\nvalue = [69, 0]\nclass = attacker", fillcolor="#e58139"] ;
72 -> 78 ;
79 [label="loser_attack <= 37.5\ngini = 0.44\nsamples = 3\nvalue = [2, 1]\nclass = attacker", fillcolor="#f2c09c"] ;
71 -> 79 ;
80 [label="gini = 0.0\nsamples = 1\nvalue = [0, 1]\nclass = normal", fillcolor="#399de5"] ;
79 -> 80 ;
81 [label="gini = 0.0\nsamples = 2\nvalue = [2, 0]\nclass = attacker", fillcolor="#e58139"] ;
79 -> 81 ;
82 [label="winner_hp <= 75.5\ngini = 0.46\nsamples = 8\nvalue = [7, 4]\nclass = attacker", fillcolor="#f4c9aa"] ;
70 -> 82 ;
83 [label="gini = 0.0\nsamples = 4\nvalue = [6, 0]\nclass = attacker", fillcolor="#e58139"] ;
82 -> 83 ;
84 [label="winner_defense <= 60.0\ngini = 0.32\nsamples = 4\nvalue = [1, 4]\nclass = normal", fillcolor="#6ab6ec"] ;
82 -> 84 ;
85 [label="gini = 0.0\nsamples = 3\nvalue = [0, 4]\nclass = normal", fillcolor="#399de5"] ;
84 -> 85 ;
86 [label="gini = 0.0\nsamples = 1\nvalue = [1, 0]\nclass = attacker", fillcolor="#e58139"] ;
84 -> 86 ;
87 [label="gini = 0.0\nsamples = 113\nvalue = [168, 0]\nclass = attacker", fillcolor="#e58139"] ;
69 -> 87 ;
88 [label="winner_attack <= 75.5\ngini = 0.49\nsamples = 41\nvalue = [27, 36]\nclass = normal", fillcolor="#cee6f8"] ;
46 -> 88 ;
89 [label="winner_speed <= 47.5\ngini = 0.35\nsamples = 29\nvalue = [10, 34]\nclass = normal", fillcolor="#73baed"] ;
88 -> 89 ;
90 [label="gini = 0.0\nsamples = 11\nvalue = [0, 14]\nclass = normal", fillcolor="#399de5"] ;
89 -> 90 ;
91 [label="winner_speed <= 76.5\ngini = 0.44\nsamples = 18\nvalue = [10, 20]\nclass = normal", fillcolor="#9ccef2"] ;
89 -> 91 ;
92 [label="winner_defense <= 52.5\ngini = 0.5\nsamples = 14\nvalue = [10, 12]\nclass = normal", fillcolor="#deeffb"] ;
91 -> 92 ;
93 [label="winner_level <= 26.0\ngini = 0.2\nsamples = 6\nvalue = [1, 8]\nclass = normal", fillcolor="#52a9e8"] ;
92 -> 93 ;
94 [label="gini = 0.0\nsamples = 4\nvalue = [0, 7]\nclass = normal", fillcolor="#399de5"] ;
93 -> 94 ;
95 [label="winner_type <= 4.5\ngini = 0.5\nsamples = 2\nvalue = [1, 1]\nclass = attacker", fillcolor="#ffffff"] ;
93 -> 95 ;
96 [label="gini = 0.0\nsamples = 1\nvalue = [1, 0]\nclass = attacker", fillcolor="#e58139"] ;
95 -> 96 ;
97 [label="gini = 0.0\nsamples = 1\nvalue = [0, 1]\nclass = normal", fillcolor="#399de5"] ;
95 -> 97 ;
98 [label="winner_attack <= 70.5\ngini = 0.43\nsamples = 8\nvalue = [9, 4]\nclass = attacker", fillcolor="#f1b991"] ;
92 -> 98 ;
99 [label="winner_type <= 4.0\ngini = 0.2\nsamples = 6\nvalue = [8, 1]\nclass = attacker", fillcolor="#e89152"] ;
98 -> 99 ;
100 [label="gini = 0.0\nsamples = 4\nvalue = [7, 0]\nclass = attacker", fillcolor="#e58139"] ;
99 -> 100 ;
101 [label="winner_defense <= 65.5\ngini = 0.5\nsamples = 2\nvalue = [1, 1]\nclass = attacker", fillcolor="#ffffff"] ;
99 -> 101 ;
102 [label="gini = 0.0\nsamples = 1\nvalue = [0, 1]\nclass = normal", fillcolor="#399de5"] ;
101 -> 102 ;
103 [label="gini = 0.0\nsamples = 1\nvalue = [1, 0]\nclass = attacker", fillcolor="#e58139"] ;
101 -> 103 ;
104 [label="loser_level <= 26.0\ngini = 0.38\nsamples = 2\nvalue = [1, 3]\nclass = normal", fillcolor="#7bbeee"] ;
98 -> 104 ;
105 [label="gini = 0.0\nsamples = 1\nvalue = [0, 3]\nclass = normal", fillcolor="#399de5"] ;
104 -> 105 ;
106 [label="gini = 0.0\nsamples = 1\nvalue = [1, 0]\nclass = attacker", fillcolor="#e58139"] ;
104 -> 106 ;
107 [label="gini = 0.0\nsamples = 4\nvalue = [0, 8]\nclass = normal", fillcolor="#399de5"] ;
91 -> 107 ;
108 [label="winner_level <= 32.0\ngini = 0.19\nsamples = 12\nvalue = [17, 2]\nclass = attacker", fillcolor="#e89050"] ;
88 -> 108 ;
109 [label="loser_level <= 30.5\ngini = 0.41\nsamples = 5\nvalue = [5, 2]\nclass = attacker", fillcolor="#efb388"] ;
108 -> 109 ;
110 [label="gini = 0.0\nsamples = 3\nvalue = [4, 0]\nclass = attacker", fillcolor="#e58139"] ;
109 -> 110 ;
111 [label="loser_hp <= 88.0\ngini = 0.44\nsamples = 2\nvalue = [1, 2]\nclass = normal", fillcolor="#9ccef2"] ;
109 -> 111 ;
112 [label="gini = 0.0\nsamples = 1\nvalue = [1, 0]\nclass = attacker", fillcolor="#e58139"] ;
111 -> 112 ;
113 [label="gini = 0.0\nsamples = 1\nvalue = [0, 2]\nclass = normal", fillcolor="#399de5"] ;
111 -> 113 ;
114 [label="gini = 0.0\nsamples = 7\nvalue = [12, 0]\nclass = attacker", fillcolor="#e58139"] ;
108 -> 114 ;
115 [label="loser_speed <= 89.5\ngini = 0.1\nsamples = 1253\nvalue = [102, 1896]\nclass = normal", fillcolor="#44a2e6"] ;
1 -> 115 ;
116 [label="winner_attack <= 71.5\ngini = 0.28\nsamples = 274\nvalue = [72, 361]\nclass = normal", fillcolor="#60b1ea"] ;
115 -> 116 ;
117 [label="winner_defense <= 103.0\ngini = 0.09\nsamples = 207\nvalue = [16, 310]\nclass = normal", fillcolor="#43a2e6"] ;
116 -> 117 ;
118 [label="winner_level <= 36.0\ngini = 0.09\nsamples = 206\nvalue = [15, 310]\nclass = normal", fillcolor="#43a2e6"] ;
117 -> 118 ;
119 [label="winner_attack <= 70.5\ngini = 0.07\nsamples = 198\nvalue = [12, 301]\nclass = normal", fillcolor="#41a1e6"] ;
118 -> 119 ;
120 [label="loser_defense <= 138.0\ngini = 0.07\nsamples = 197\nvalue = [11, 301]\nclass = normal", fillcolor="#40a1e6"] ;
119 -> 120 ;
121 [label="loser_speed <= 88.5\ngini = 0.05\nsamples = 184\nvalue = [7, 287]\nclass = normal", fillcolor="#3e9fe6"] ;
120 -> 121 ;
122 [label="winner_speed <= 54.5\ngini = 0.03\nsamples = 180\nvalue = [5, 282]\nclass = normal", fillcolor="#3d9fe5"] ;
121 -> 122 ;
123 [label="loser_speed <= 57.5\ngini = 0.01\nsamples = 140\nvalue = [1, 223]\nclass = normal", fillcolor="#3a9de5"] ;
122 -> 123 ;
124 [label="loser_attack <= 53.5\ngini = 0.04\nsamples = 27\nvalue = [1, 44]\nclass = normal", fillcolor="#3d9fe6"] ;
123 -> 124 ;
125 [label="winner_level <= 10.5\ngini = 0.24\nsamples = 3\nvalue = [1, 6]\nclass = normal", fillcolor="#5aade9"] ;
124 -> 125 ;
126 [label="gini = 0.0\nsamples = 2\nvalue = [0, 6]\nclass = normal", fillcolor="#399de5"] ;
125 -> 126 ;
127 [label="gini = 0.0\nsamples = 1\nvalue = [1, 0]\nclass = attacker", fillcolor="#e58139"] ;
125 -> 127 ;
128 [label="gini = 0.0\nsamples = 24\nvalue = [0, 38]\nclass = normal", fillcolor="#399de5"] ;
124 -> 128 ;
129 [label="gini = 0.0\nsamples = 113\nvalue = [0, 179]\nclass = normal", fillcolor="#399de5"] ;
123 -> 129 ;
130 [label="loser_type <= 3.5\ngini = 0.12\nsamples = 40\nvalue = [4, 59]\nclass = normal", fillcolor="#46a4e7"] ;
122 -> 130 ;
131 [label="gini = 0.0\nsamples = 21\nvalue = [0, 33]\nclass = normal", fillcolor="#399de5"] ;
130 -> 131 ;
132 [label="loser_defense <= 66.0\ngini = 0.23\nsamples = 19\nvalue = [4, 26]\nclass = normal", fillcolor="#57ace9"] ;
130 -> 132 ;
133 [label="gini = 0.0\nsamples = 2\nvalue = [3, 0]\nclass = attacker", fillcolor="#e58139"] ;
132 -> 133 ;
134 [label="winner_level <= 21.5\ngini = 0.07\nsamples = 17\nvalue = [1, 26]\nclass = normal", fillcolor="#41a1e6"] ;
132 -> 134 ;
135 [label="winner_speed <= 61.5\ngini = 0.44\nsamples = 2\nvalue = [1, 2]\nclass = normal", fillcolor="#9ccef2"] ;
134 -> 135 ;
136 [label="gini = 0.0\nsamples = 1\nvalue = [0, 2]\nclass = normal", fillcolor="#399de5"] ;
135 -> 136 ;
137 [label="gini = 0.0\nsamples = 1\nvalue = [1, 0]\nclass = attacker", fillcolor="#e58139"] ;
135 -> 137 ;
138 [label="gini = 0.0\nsamples = 15\nvalue = [0, 24]\nclass = normal", fillcolor="#399de5"] ;
134 -> 138 ;
139 [label="winner_hp <= 56.0\ngini = 0.41\nsamples = 4\nvalue = [2, 5]\nclass = normal", fillcolor="#88c4ef"] ;
121 -> 139 ;
140 [label="gini = 0.0\nsamples = 2\nvalue = [0, 4]\nclass = normal", fillcolor="#399de5"] ;
139 -> 140 ;
141 [label="loser_level <= 42.0\ngini = 0.44\nsamples = 2\nvalue = [2, 1]\nclass = attacker", fillcolor="#f2c09c"] ;
139 -> 141 ;
142 [label="gini = 0.0\nsamples = 1\nvalue = [2, 0]\nclass = attacker", fillcolor="#e58139"] ;
141 -> 142 ;
143 [label="gini = 0.0\nsamples = 1\nvalue = [0, 1]\nclass = normal", fillcolor="#399de5"] ;
141 -> 143 ;
144 [label="winner_type <= 1.5\ngini = 0.35\nsamples = 13\nvalue = [4, 14]\nclass = normal", fillcolor="#72b9ec"] ;
120 -> 144 ;
145 [label="winner_level <= 23.0\ngini = 0.49\nsamples = 3\nvalue = [4, 3]\nclass = attacker", fillcolor="#f8e0ce"] ;
144 -> 145 ;
146 [label="gini = 0.0\nsamples = 2\nvalue = [4, 0]\nclass = attacker", fillcolor="#e58139"] ;
145 -> 146 ;
147 [label="gini = 0.0\nsamples = 1\nvalue = [0, 3]\nclass = normal", fillcolor="#399de5"] ;
145 -> 147 ;
148 [label="gini = 0.0\nsamples = 10\nvalue = [0, 11]\nclass = normal", fillcolor="#399de5"] ;
144 -> 148 ;
149 [label="gini = 0.0\nsamples = 1\nvalue = [1, 0]\nclass = attacker", fillcolor="#e58139"] ;
119 -> 149 ;
150 [label="loser_level <= 34.5\ngini = 0.38\nsamples = 8\nvalue = [3, 9]\nclass = normal", fillcolor="#7bbeee"] ;
118 -> 150 ;
151 [label="loser_type <= 5.5\ngini = 0.38\nsamples = 3\nvalue = [3, 1]\nclass = attacker", fillcolor="#eeab7b"] ;
150 -> 151 ;
152 [label="gini = 0.0\nsamples = 2\nvalue = [3, 0]\nclass = attacker", fillcolor="#e58139"] ;
151 -> 152 ;
153 [label="gini = 0.0\nsamples = 1\nvalue = [0, 1]\nclass = normal", fillcolor="#399de5"] ;
151 -> 153 ;
154 [label="gini = 0.0\nsamples = 5\nvalue = [0, 8]\nclass = normal", fillcolor="#399de5"] ;
150 -> 154 ;
155 [label="gini = 0.0\nsamples = 1\nvalue = [1, 0]\nclass = attacker", fillcolor="#e58139"] ;
117 -> 155 ;
156 [label="loser_level <= 30.5\ngini = 0.5\nsamples = 67\nvalue = [56, 51]\nclass = attacker", fillcolor="#fdf4ed"] ;
116 -> 156 ;
157 [label="winner_speed <= 107.0\ngini = 0.31\nsamples = 18\nvalue = [25, 6]\nclass = attacker", fillcolor="#eb9f69"] ;
156 -> 157 ;
158 [label="winner_speed <= 68.5\ngini = 0.19\nsamples = 16\nvalue = [25, 3]\nclass = attacker", fillcolor="#e89051"] ;
157 -> 158 ;
159 [label="gini = 0.0\nsamples = 5\nvalue = [11, 0]\nclass = attacker", fillcolor="#e58139"] ;
158 -> 159 ;
160 [label="loser_hp <= 109.0\ngini = 0.29\nsamples = 11\nvalue = [14, 3]\nclass = attacker", fillcolor="#eb9c63"] ;
158 -> 160 ;
161 [label="loser_attack <= 64.0\ngini = 0.44\nsamples = 7\nvalue = [6, 3]\nclass = attacker", fillcolor="#f2c09c"] ;
160 -> 161 ;
162 [label="gini = 0.0\nsamples = 1\nvalue = [0, 2]\nclass = normal", fillcolor="#399de5"] ;
161 -> 162 ;
163 [label="loser_type <= 2.5\ngini = 0.24\nsamples = 6\nvalue = [6, 1]\nclass = attacker", fillcolor="#e9965a"] ;
161 -> 163 ;
164 [label="winner_level <= 34.5\ngini = 0.5\nsamples = 2\nvalue = [1, 1]\nclass = attacker", fillcolor="#ffffff"] ;
163 -> 164 ;
165 [label="gini = 0.0\nsamples = 1\nvalue = [0, 1]\nclass = normal", fillcolor="#399de5"] ;
164 -> 165 ;
166 [label="gini = 0.0\nsamples = 1\nvalue = [1, 0]\nclass = attacker", fillcolor="#e58139"] ;
164 -> 166 ;
167 [label="gini = 0.0\nsamples = 4\nvalue = [5, 0]\nclass = attacker", fillcolor="#e58139"] ;
163 -> 167 ;
168 [label="gini = 0.0\nsamples = 4\nvalue = [8, 0]\nclass = attacker", fillcolor="#e58139"] ;
160 -> 168 ;
169 [label="gini = 0.0\nsamples = 2\nvalue = [0, 3]\nclass = normal", fillcolor="#399de5"] ;
157 -> 169 ;
170 [label="winner_attack <= 87.5\ngini = 0.48\nsamples = 49\nvalue = [31, 45]\nclass = normal", fillcolor="#c1e1f7"] ;
156 -> 170 ;
171 [label="winner_speed <= 76.5\ngini = 0.25\nsamples = 23\nvalue = [5, 29]\nclass = normal", fillcolor="#5baee9"] ;
170 -> 171 ;
172 [label="winner_hp <= 108.0\ngini = 0.43\nsamples = 9\nvalue = [4, 9]\nclass = normal", fillcolor="#91c9f1"] ;
171 -> 172 ;
173 [label="gini = 0.0\nsamples = 4\nvalue = [0, 6]\nclass = normal", fillcolor="#399de5"] ;
172 -> 173 ;
174 [label="winner_speed <= 53.0\ngini = 0.49\nsamples = 5\nvalue = [4, 3]\nclass = attacker", fillcolor="#f8e0ce"] ;
172 -> 174 ;
175 [label="winner_defense <= 82.0\ngini = 0.38\nsamples = 3\nvalue = [1, 3]\nclass = normal", fillcolor="#7bbeee"] ;
174 -> 175 ;
176 [label="gini = 0.0\nsamples = 1\nvalue = [0, 2]\nclass = normal", fillcolor="#399de5"] ;
175 -> 176 ;
177 [label="loser_defense <= 81.5\ngini = 0.5\nsamples = 2\nvalue = [1, 1]\nclass = attacker", fillcolor="#ffffff"] ;
175 -> 177 ;
178 [label="gini = 0.0\nsamples = 1\nvalue = [0, 1]\nclass = normal", fillcolor="#399de5"] ;
177 -> 178 ;
179 [label="gini = 0.0\nsamples = 1\nvalue = [1, 0]\nclass = attacker", fillcolor="#e58139"] ;
177 -> 179 ;
180 [label="gini = 0.0\nsamples = 2\nvalue = [3, 0]\nclass = attacker", fillcolor="#e58139"] ;
174 -> 180 ;
181 [label="winner_hp <= 99.5\ngini = 0.09\nsamples = 14\nvalue = [1, 20]\nclass = normal", fillcolor="#43a2e6"] ;
171 -> 181 ;
182 [label="loser_hp <= 135.5\ngini = 0.5\nsamples = 2\nvalue = [1, 1]\nclass = attacker", fillcolor="#ffffff"] ;
181 -> 182 ;
183 [label="gini = 0.0\nsamples = 1\nvalue = [1, 0]\nclass = attacker", fillcolor="#e58139"] ;
182 -> 183 ;
184 [label="gini = 0.0\nsamples = 1\nvalue = [0, 1]\nclass = normal", fillcolor="#399de5"] ;
182 -> 184 ;
185 [label="gini = 0.0\nsamples = 12\nvalue = [0, 19]\nclass = normal", fillcolor="#399de5"] ;
181 -> 185 ;
186 [label="winner_hp <= 104.5\ngini = 0.47\nsamples = 26\nvalue = [26, 16]\nclass = attacker", fillcolor="#f5cfb3"] ;
170 -> 186 ;
187 [label="gini = 0.0\nsamples = 5\nvalue = [0, 8]\nclass = normal", fillcolor="#399de5"] ;
186 -> 187 ;
188 [label="loser_attack <= 94.5\ngini = 0.36\nsamples = 21\nvalue = [26, 8]\nclass = attacker", fillcolor="#eda876"] ;
186 -> 188 ;
189 [label="winner_speed <= 68.5\ngini = 0.08\nsamples = 16\nvalue = [23, 1]\nclass = attacker", fillcolor="#e68642"] ;
188 -> 189 ;
190 [label="loser_level <= 37.0\ngini = 0.5\nsamples = 2\nvalue = [1, 1]\nclass = attacker", fillcolor="#ffffff"] ;
189 -> 190 ;
191 [label="gini = 0.0\nsamples = 1\nvalue = [0, 1]\nclass = normal", fillcolor="#399de5"] ;
190 -> 191 ;
192 [label="gini = 0.0\nsamples = 1\nvalue = [1, 0]\nclass = attacker", fillcolor="#e58139"] ;
190 -> 192 ;
193 [label="gini = 0.0\nsamples = 14\nvalue = [22, 0]\nclass = attacker", fillcolor="#e58139"] ;
189 -> 193 ;
194 [label="loser_type <= 4.5\ngini = 0.42\nsamples = 5\nvalue = [3, 7]\nclass = normal", fillcolor="#8ec7f0"] ;
188 -> 194 ;
195 [label="gini = 0.0\nsamples = 2\nvalue = [0, 6]\nclass = normal", fillcolor="#399de5"] ;
194 -> 195 ;
196 [label="loser_speed <= 74.5\ngini = 0.38\nsamples = 3\nvalue = [3, 1]\nclass = attacker", fillcolor="#eeab7b"] ;
194 -> 196 ;
197 [label="gini = 0.0\nsamples = 1\nvalue = [0, 1]\nclass = normal", fillcolor="#399de5"] ;
196 -> 197 ;
198 [label="gini = 0.0\nsamples = 2\nvalue = [3, 0]\nclass = attacker", fillcolor="#e58139"] ;
196 -> 198 ;
199 [label="loser_level <= 36.5\ngini = 0.04\nsamples = 979\nvalue = [30, 1535]\nclass = normal", fillcolor="#3d9fe6"] ;
115 -> 199 ;
200 [label="winner_attack <= 64.5\ngini = 0.27\nsamples = 34\nvalue = [8, 41]\nclass = normal", fillcolor="#60b0ea"] ;
199 -> 200 ;
201 [label="winner_attack <= 57.5\ngini = 0.05\nsamples = 27\nvalue = [1, 39]\nclass = normal", fillcolor="#3ea0e6"] ;
200 -> 201 ;
202 [label="gini = 0.0\nsamples = 25\nvalue = [0, 37]\nclass = normal", fillcolor="#399de5"] ;
201 -> 202 ;
203 [label="winner_speed <= 66.0\ngini = 0.44\nsamples = 2\nvalue = [1, 2]\nclass = normal", fillcolor="#9ccef2"] ;
201 -> 203 ;
204 [label="gini = 0.0\nsamples = 1\nvalue = [1, 0]\nclass = attacker", fillcolor="#e58139"] ;
203 -> 204 ;
205 [label="gini = 0.0\nsamples = 1\nvalue = [0, 2]\nclass = normal", fillcolor="#399de5"] ;
203 -> 205 ;
206 [label="loser_defense <= 68.5\ngini = 0.35\nsamples = 7\nvalue = [7, 2]\nclass = attacker", fillcolor="#eca572"] ;
200 -> 206 ;
207 [label="loser_level <= 35.0\ngini = 0.44\nsamples = 3\nvalue = [1, 2]\nclass = normal", fillcolor="#9ccef2"] ;
206 -> 207 ;
208 [label="gini = 0.0\nsamples = 2\nvalue = [0, 2]\nclass = normal", fillcolor="#399de5"] ;
207 -> 208 ;
209 [label="gini = 0.0\nsamples = 1\nvalue = [1, 0]\nclass = attacker", fillcolor="#e58139"] ;
207 -> 209 ;
210 [label="gini = 0.0\nsamples = 4\nvalue = [6, 0]\nclass = attacker", fillcolor="#e58139"] ;
206 -> 210 ;
211 [label="loser_attack <= 64.5\ngini = 0.03\nsamples = 945\nvalue = [22, 1494]\nclass = normal", fillcolor="#3c9ee5"] ;
199 -> 211 ;
212 [label="loser_speed <= 100.5\ngini = 0.5\nsamples = 3\nvalue = [3, 3]\nclass = attacker", fillcolor="#ffffff"] ;
211 -> 212 ;
213 [label="gini = 0.0\nsamples = 1\nvalue = [3, 0]\nclass = attacker", fillcolor="#e58139"] ;
212 -> 213 ;
214 [label="gini = 0.0\nsamples = 2\nvalue = [0, 3]\nclass = normal", fillcolor="#399de5"] ;
212 -> 214 ;
215 [label="winner_hp <= 148.0\ngini = 0.02\nsamples = 942\nvalue = [19, 1491]\nclass = normal", fillcolor="#3c9ee5"] ;
211 -> 215 ;
216 [label="winner_hp <= 127.5\ngini = 0.02\nsamples = 934\nvalue = [15, 1481]\nclass = normal", fillcolor="#3b9ee5"] ;
215 -> 216 ;
217 [label="loser_defense <= 223.5\ngini = 0.02\nsamples = 899\nvalue = [12, 1430]\nclass = normal", fillcolor="#3b9ee5"] ;
216 -> 217 ;
218 [label="loser_defense <= 66.5\ngini = 0.01\nsamples = 779\nvalue = [6, 1250]\nclass = normal", fillcolor="#3a9de5"] ;
217 -> 218 ;
219 [label="winner_speed <= 57.0\ngini = 0.2\nsamples = 7\nvalue = [1, 8]\nclass = normal", fillcolor="#52a9e8"] ;
218 -> 219 ;
220 [label="gini = 0.0\nsamples = 4\nvalue = [0, 5]\nclass = normal", fillcolor="#399de5"] ;
219 -> 220 ;
221 [label="loser_type <= 2.0\ngini = 0.38\nsamples = 3\nvalue = [1, 3]\nclass = normal", fillcolor="#7bbeee"] ;
219 -> 221 ;
222 [label="gini = 0.0\nsamples = 2\nvalue = [0, 3]\nclass = normal", fillcolor="#399de5"] ;
221 -> 222 ;
223 [label="gini = 0.0\nsamples = 1\nvalue = [1, 0]\nclass = attacker", fillcolor="#e58139"] ;
221 -> 223 ;
224 [label="winner_speed <= 109.5\ngini = 0.01\nsamples = 772\nvalue = [5, 1242]\nclass = normal", fillcolor="#3a9de5"] ;
218 -> 224 ;
225 [label="loser_hp <= 196.5\ngini = 0.01\nsamples = 765\nvalue = [4, 1233]\nclass = normal", fillcolor="#3a9de5"] ;
224 -> 225 ;
226 [label="winner_defense <= 83.5\ngini = 0.02\nsamples = 305\nvalue = [4, 476]\nclass = normal", fillcolor="#3b9ee5"] ;
225 -> 226 ;
227 [label="loser_defense <= 181.0\ngini = 0.0\nsamples = 278\nvalue = [1, 439]\nclass = normal", fillcolor="#399de5"] ;
226 -> 227 ;
228 [label="gini = 0.0\nsamples = 268\nvalue = [0, 426]\nclass = normal", fillcolor="#399de5"] ;
227 -> 228 ;
229 [label="winner_speed <= 16.5\ngini = 0.13\nsamples = 10\nvalue = [1, 13]\nclass = normal", fillcolor="#48a5e7"] ;
227 -> 229 ;
230 [label="gini = 0.0\nsamples = 1\nvalue = [1, 0]\nclass = attacker", fillcolor="#e58139"] ;
229 -> 230 ;
231 [label="gini = 0.0\nsamples = 9\nvalue = [0, 13]\nclass = normal", fillcolor="#399de5"] ;
229 -> 231 ;
232 [label="loser_speed <= 200.0\ngini = 0.14\nsamples = 27\nvalue = [3, 37]\nclass = normal", fillcolor="#49a5e7"] ;
226 -> 232 ;
233 [label="loser_hp <= 149.5\ngini = 0.1\nsamples = 26\nvalue = [2, 37]\nclass = normal", fillcolor="#44a2e6"] ;
232 -> 233 ;
234 [label="winner_level <= 36.5\ngini = 0.22\nsamples = 11\nvalue = [2, 14]\nclass = normal", fillcolor="#55abe9"] ;
233 -> 234 ;
235 [label="loser_speed <= 114.5\ngini = 0.41\nsamples = 6\nvalue = [2, 5]\nclass = normal", fillcolor="#88c4ef"] ;
234 -> 235 ;
236 [label="gini = 0.0\nsamples = 3\nvalue = [0, 4]\nclass = normal", fillcolor="#399de5"] ;
235 -> 236 ;
237 [label="loser_defense <= 94.5\ngini = 0.44\nsamples = 3\nvalue = [2, 1]\nclass = attacker", fillcolor="#f2c09c"] ;
235 -> 237 ;
238 [label="gini = 0.0\nsamples = 1\nvalue = [0, 1]\nclass = normal", fillcolor="#399de5"] ;
237 -> 238 ;
239 [label="gini = 0.0\nsamples = 2\nvalue = [2, 0]\nclass = attacker", fillcolor="#e58139"] ;
237 -> 239 ;
240 [label="gini = 0.0\nsamples = 5\nvalue = [0, 9]\nclass = normal", fillcolor="#399de5"] ;
234 -> 240 ;
241 [label="gini = 0.0\nsamples = 15\nvalue = [0, 23]\nclass = normal", fillcolor="#399de5"] ;
233 -> 241 ;
242 [label="gini = 0.0\nsamples = 1\nvalue = [1, 0]\nclass = attacker", fillcolor="#e58139"] ;
232 -> 242 ;
243 [label="gini = 0.0\nsamples = 460\nvalue = [0, 757]\nclass = normal", fillcolor="#399de5"] ;
225 -> 243 ;
244 [label="loser_hp <= 125.0\ngini = 0.18\nsamples = 7\nvalue = [1, 9]\nclass = normal", fillcolor="#4fa8e8"] ;
224 -> 244 ;
245 [label="gini = 0.0\nsamples = 1\nvalue = [1, 0]\nclass = attacker", fillcolor="#e58139"] ;
244 -> 245 ;
246 [label="gini = 0.0\nsamples = 6\nvalue = [0, 9]\nclass = normal", fillcolor="#399de5"] ;
244 -> 246 ;
247 [label="loser_level <= 57.5\ngini = 0.06\nsamples = 120\nvalue = [6, 180]\nclass = normal", fillcolor="#40a0e6"] ;
217 -> 247 ;
248 [label="gini = 0.0\nsamples = 1\nvalue = [1, 0]\nclass = attacker", fillcolor="#e58139"] ;
247 -> 248 ;
249 [label="winner_type <= 12.5\ngini = 0.05\nsamples = 119\nvalue = [5, 180]\nclass = normal", fillcolor="#3ea0e6"] ;
247 -> 249 ;
250 [label="loser_defense <= 339.0\ngini = 0.03\nsamples = 110\nvalue = [3, 169]\nclass = normal", fillcolor="#3d9fe5"] ;
249 -> 250 ;
251 [label="loser_defense <= 233.5\ngini = 0.02\nsamples = 106\nvalue = [2, 162]\nclass = normal", fillcolor="#3b9ee5"] ;
250 -> 251 ;
252 [label="loser_type <= 7.5\ngini = 0.09\nsamples = 22\nvalue = [2, 38]\nclass = normal", fillcolor="#43a2e6"] ;
251 -> 252 ;
253 [label="gini = 0.0\nsamples = 14\nvalue = [0, 28]\nclass = normal", fillcolor="#399de5"] ;
252 -> 253 ;
254 [label="loser_type <= 8.5\ngini = 0.28\nsamples = 8\nvalue = [2, 10]\nclass = normal", fillcolor="#61b1ea"] ;
252 -> 254 ;
255 [label="loser_hp <= 358.5\ngini = 0.44\nsamples = 2\nvalue = [2, 1]\nclass = attacker", fillcolor="#f2c09c"] ;
254 -> 255 ;
256 [label="gini = 0.0\nsamples = 1\nvalue = [2, 0]\nclass = attacker", fillcolor="#e58139"] ;
255 -> 256 ;
257 [label="gini = 0.0\nsamples = 1\nvalue = [0, 1]\nclass = normal", fillcolor="#399de5"] ;
255 -> 257 ;
258 [label="gini = 0.0\nsamples = 6\nvalue = [0, 9]\nclass = normal", fillcolor="#399de5"] ;
254 -> 258 ;
259 [label="gini = 0.0\nsamples = 84\nvalue = [0, 124]\nclass = normal", fillcolor="#399de5"] ;
251 -> 259 ;
260 [label="winner_level <= 17.0\ngini = 0.22\nsamples = 4\nvalue = [1, 7]\nclass = normal", fillcolor="#55abe9"] ;
250 -> 260 ;
261 [label="gini = 0.0\nsamples = 3\nvalue = [0, 7]\nclass = normal", fillcolor="#399de5"] ;
260 -> 261 ;
262 [label="gini = 0.0\nsamples = 1\nvalue = [1, 0]\nclass = attacker", fillcolor="#e58139"] ;
260 -> 262 ;
263 [label="loser_speed <= 134.0\ngini = 0.26\nsamples = 9\nvalue = [2, 11]\nclass = normal", fillcolor="#5dafea"] ;
249 -> 263 ;
264 [label="gini = 0.0\nsamples = 1\nvalue = [2, 0]\nclass = attacker", fillcolor="#e58139"] ;
263 -> 264 ;
265 [label="gini = 0.0\nsamples = 8\nvalue = [0, 11]\nclass = normal", fillcolor="#399de5"] ;
263 -> 265 ;
266 [label="loser_defense <= 101.5\ngini = 0.1\nsamples = 35\nvalue = [3, 51]\nclass = normal", fillcolor="#45a3e7"] ;
216 -> 266 ;
267 [label="loser_hp <= 141.0\ngini = 0.49\nsamples = 6\nvalue = [3, 4]\nclass = normal", fillcolor="#cee6f8"] ;
266 -> 267 ;
268 [label="gini = 0.0\nsamples = 4\nvalue = [0, 4]\nclass = normal", fillcolor="#399de5"] ;
267 -> 268 ;
269 [label="gini = 0.0\nsamples = 2\nvalue = [3, 0]\nclass = attacker", fillcolor="#e58139"] ;
267 -> 269 ;
270 [label="gini = 0.0\nsamples = 29\nvalue = [0, 47]\nclass = normal", fillcolor="#399de5"] ;
266 -> 270 ;
271 [label="loser_level <= 71.5\ngini = 0.41\nsamples = 8\nvalue = [4, 10]\nclass = normal", fillcolor="#88c4ef"] ;
215 -> 271 ;
272 [label="winner_hp <= 162.5\ngini = 0.44\nsamples = 3\nvalue = [4, 2]\nclass = attacker", fillcolor="#f2c09c"] ;
271 -> 272 ;
273 [label="gini = 0.0\nsamples = 2\nvalue = [4, 0]\nclass = attacker", fillcolor="#e58139"] ;
272 -> 273 ;
274 [label="gini = 0.0\nsamples = 1\nvalue = [0, 2]\nclass = normal", fillcolor="#399de5"] ;
272 -> 274 ;
275 [label="gini = 0.0\nsamples = 5\nvalue = [0, 8]\nclass = normal", fillcolor="#399de5"] ;
271 -> 275 ;
276 [label="loser_level <= 61.5\ngini = 0.42\nsamples = 2714\nvalue = [2991, 1319]\nclass = attacker", fillcolor="#f0b990"] ;
0 -> 276 [labeldistance=2.5, labelangle=-45, headlabel="False"] ;
277 [label="loser_attack <= 119.5\ngini = 0.17\nsamples = 1688\nvalue = [2417, 253]\nclass = attacker", fillcolor="#e88e4e"] ;
276 -> 277 ;
278 [label="winner_hp <= 169.5\ngini = 0.09\nsamples = 1431\nvalue = [2155, 106]\nclass = attacker", fillcolor="#e68743"] ;
277 -> 278 ;
279 [label="loser_defense <= 101.5\ngini = 0.23\nsamples = 355\nvalue = [505, 75]\nclass = attacker", fillcolor="#e99456"] ;
278 -> 279 ;
280 [label="loser_speed <= 72.5\ngini = 0.14\nsamples = 310\nvalue = [471, 37]\nclass = attacker", fillcolor="#e78b49"] ;
279 -> 280 ;
281 [label="loser_level <= 43.5\ngini = 0.04\nsamples = 205\nvalue = [336, 7]\nclass = attacker", fillcolor="#e6843d"] ;
280 -> 281 ;
282 [label="loser_defense <= 78.5\ngini = 0.02\nsamples = 204\nvalue = [336, 4]\nclass = attacker", fillcolor="#e5823b"] ;
281 -> 282 ;
283 [label="loser_hp <= 43.5\ngini = 0.01\nsamples = 198\nvalue = [326, 1]\nclass = attacker", fillcolor="#e5813a"] ;
282 -> 283 ;
284 [label="loser_attack <= 26.5\ngini = 0.02\nsamples = 73\nvalue = [115, 1]\nclass = attacker", fillcolor="#e5823b"] ;
283 -> 284 ;
285 [label="gini = 0.0\nsamples = 63\nvalue = [101, 0]\nclass = attacker", fillcolor="#e58139"] ;
284 -> 285 ;
286 [label="winner_speed <= 69.5\ngini = 0.12\nsamples = 10\nvalue = [14, 1]\nclass = attacker", fillcolor="#e78a47"] ;
284 -> 286 ;
287 [label="winner_attack <= 106.5\ngini = 0.5\nsamples = 2\nvalue = [1, 1]\nclass = attacker", fillcolor="#ffffff"] ;
286 -> 287 ;
288 [label="gini = 0.0\nsamples = 1\nvalue = [1, 0]\nclass = attacker", fillcolor="#e58139"] ;
287 -> 288 ;
289 [label="gini = 0.0\nsamples = 1\nvalue = [0, 1]\nclass = normal", fillcolor="#399de5"] ;
287 -> 289 ;
290 [label="gini = 0.0\nsamples = 8\nvalue = [13, 0]\nclass = attacker", fillcolor="#e58139"] ;
286 -> 290 ;
291 [label="gini = 0.0\nsamples = 125\nvalue = [211, 0]\nclass = attacker", fillcolor="#e58139"] ;
283 -> 291 ;
292 [label="winner_level <= 56.0\ngini = 0.36\nsamples = 6\nvalue = [10, 3]\nclass = attacker", fillcolor="#eda774"] ;
282 -> 292 ;
293 [label="gini = 0.0\nsamples = 5\nvalue = [10, 0]\nclass = attacker", fillcolor="#e58139"] ;
292 -> 293 ;
294 [label="gini = 0.0\nsamples = 1\nvalue = [0, 3]\nclass = normal", fillcolor="#399de5"] ;
292 -> 294 ;
295 [label="gini = 0.0\nsamples = 1\nvalue = [0, 3]\nclass = normal", fillcolor="#399de5"] ;
281 -> 295 ;
296 [label="winner_attack <= 73.0\ngini = 0.3\nsamples = 105\nvalue = [135, 30]\nclass = attacker", fillcolor="#eb9d65"] ;
280 -> 296 ;
297 [label="winner_defense <= 113.5\ngini = 0.38\nsamples = 8\nvalue = [3, 9]\nclass = normal", fillcolor="#7bbeee"] ;
296 -> 297 ;
298 [label="loser_attack <= 74.5\ngini = 0.18\nsamples = 6\nvalue = [1, 9]\nclass = normal", fillcolor="#4fa8e8"] ;
297 -> 298 ;
299 [label="loser_hp <= 108.0\ngini = 0.38\nsamples = 2\nvalue = [1, 3]\nclass = normal", fillcolor="#7bbeee"] ;
298 -> 299 ;
300 [label="gini = 0.0\nsamples = 1\nvalue = [0, 3]\nclass = normal", fillcolor="#399de5"] ;
299 -> 300 ;
301 [label="gini = 0.0\nsamples = 1\nvalue = [1, 0]\nclass = attacker", fillcolor="#e58139"] ;
299 -> 301 ;
302 [label="gini = 0.0\nsamples = 4\nvalue = [0, 6]\nclass = normal", fillcolor="#399de5"] ;
298 -> 302 ;
303 [label="gini = 0.0\nsamples = 2\nvalue = [2, 0]\nclass = attacker", fillcolor="#e58139"] ;
297 -> 303 ;
304 [label="loser_type <= 11.5\ngini = 0.24\nsamples = 97\nvalue = [132, 21]\nclass = attacker", fillcolor="#e99558"] ;
296 -> 304 ;
305 [label="loser_level <= 40.5\ngini = 0.16\nsamples = 81\nvalue = [117, 11]\nclass = attacker", fillcolor="#e78d4c"] ;
304 -> 305 ;
306 [label="loser_attack <= 85.0\ngini = 0.03\nsamples = 50\nvalue = [77, 1]\nclass = attacker", fillcolor="#e5833c"] ;
305 -> 306 ;
307 [label="gini = 0.0\nsamples = 33\nvalue = [53, 0]\nclass = attacker", fillcolor="#e58139"] ;
306 -> 307 ;
308 [label="loser_speed <= 111.5\ngini = 0.08\nsamples = 17\nvalue = [24, 1]\nclass = attacker", fillcolor="#e68641"] ;
306 -> 308 ;
309 [label="gini = 0.0\nsamples = 14\nvalue = [22, 0]\nclass = attacker", fillcolor="#e58139"] ;
308 -> 309 ;
310 [label="loser_hp <= 113.5\ngini = 0.44\nsamples = 3\nvalue = [2, 1]\nclass = attacker", fillcolor="#f2c09c"] ;
308 -> 310 ;
311 [label="gini = 0.0\nsamples = 1\nvalue = [0, 1]\nclass = normal", fillcolor="#399de5"] ;
310 -> 311 ;
312 [label="gini = 0.0\nsamples = 2\nvalue = [2, 0]\nclass = attacker", fillcolor="#e58139"] ;
310 -> 312 ;
313 [label="loser_attack <= 74.5\ngini = 0.32\nsamples = 31\nvalue = [40, 10]\nclass = attacker", fillcolor="#eca06a"] ;
305 -> 313 ;
314 [label="gini = 0.0\nsamples = 1\nvalue = [0, 1]\nclass = normal", fillcolor="#399de5"] ;
313 -> 314 ;
315 [label="winner_type <= 8.5\ngini = 0.3\nsamples = 30\nvalue = [40, 9]\nclass = attacker", fillcolor="#eb9d66"] ;
313 -> 315 ;
316 [label="loser_defense <= 85.5\ngini = 0.38\nsamples = 22\nvalue = [26, 9]\nclass = attacker", fillcolor="#eead7e"] ;
315 -> 316 ;
317 [label="loser_attack <= 95.0\ngini = 0.5\nsamples = 9\nvalue = [6, 7]\nclass = normal", fillcolor="#e3f1fb"] ;
316 -> 317 ;
318 [label="loser_hp <= 131.5\ngini = 0.44\nsamples = 6\nvalue = [6, 3]\nclass = attacker", fillcolor="#f2c09c"] ;
317 -> 318 ;
319 [label="loser_hp <= 126.5\ngini = 0.24\nsamples = 4\nvalue = [6, 1]\nclass = attacker", fillcolor="#e9965a"] ;
318 -> 319 ;
320 [label="loser_speed <= 110.0\ngini = 0.44\nsamples = 2\nvalue = [2, 1]\nclass = attacker", fillcolor="#f2c09c"] ;
319 -> 320 ;
321 [label="gini = 0.0\nsamples = 1\nvalue = [2, 0]\nclass = attacker", fillcolor="#e58139"] ;
320 -> 321 ;
322 [label="gini = 0.0\nsamples = 1\nvalue = [0, 1]\nclass = normal", fillcolor="#399de5"] ;
320 -> 322 ;
323 [label="gini = 0.0\nsamples = 2\nvalue = [4, 0]\nclass = attacker", fillcolor="#e58139"] ;
319 -> 323 ;
324 [label="gini = 0.0\nsamples = 2\nvalue = [0, 2]\nclass = normal", fillcolor="#399de5"] ;
318 -> 324 ;
325 [label="gini = 0.0\nsamples = 3\nvalue = [0, 4]\nclass = normal", fillcolor="#399de5"] ;
317 -> 325 ;
326 [label="winner_speed <= 88.5\ngini = 0.17\nsamples = 13\nvalue = [20, 2]\nclass = attacker", fillcolor="#e88e4d"] ;
316 -> 326 ;
327 [label="gini = 0.0\nsamples = 1\nvalue = [0, 1]\nclass = normal", fillcolor="#399de5"] ;
326 -> 327 ;
328 [label="loser_level <= 44.5\ngini = 0.09\nsamples = 12\nvalue = [20, 1]\nclass = attacker", fillcolor="#e68743"] ;
326 -> 328 ;
329 [label="loser_defense <= 93.5\ngini = 0.38\nsamples = 3\nvalue = [3, 1]\nclass = attacker", fillcolor="#eeab7b"] ;
328 -> 329 ;
330 [label="gini = 0.0\nsamples = 1\nvalue = [0, 1]\nclass = normal", fillcolor="#399de5"] ;
329 -> 330 ;
331 [label="gini = 0.0\nsamples = 2\nvalue = [3, 0]\nclass = attacker", fillcolor="#e58139"] ;
329 -> 331 ;
332 [label="gini = 0.0\nsamples = 9\nvalue = [17, 0]\nclass = attacker", fillcolor="#e58139"] ;
328 -> 332 ;
333 [label="gini = 0.0\nsamples = 8\nvalue = [14, 0]\nclass = attacker", fillcolor="#e58139"] ;
315 -> 333 ;
334 [label="loser_level <= 35.5\ngini = 0.48\nsamples = 16\nvalue = [15, 10]\nclass = attacker", fillcolor="#f6d5bd"] ;
304 -> 334 ;
335 [label="winner_attack <= 126.0\ngini = 0.22\nsamples = 6\nvalue = [7, 1]\nclass = attacker", fillcolor="#e99355"] ;
334 -> 335 ;
336 [label="gini = 0.0\nsamples = 4\nvalue = [6, 0]\nclass = attacker", fillcolor="#e58139"] ;
335 -> 336 ;
337 [label="loser_speed <= 87.5\ngini = 0.5\nsamples = 2\nvalue = [1, 1]\nclass = attacker", fillcolor="#ffffff"] ;
335 -> 337 ;
338 [label="gini = 0.0\nsamples = 1\nvalue = [1, 0]\nclass = attacker", fillcolor="#e58139"] ;
337 -> 338 ;
339 [label="gini = 0.0\nsamples = 1\nvalue = [0, 1]\nclass = normal", fillcolor="#399de5"] ;
337 -> 339 ;
340 [label="loser_attack <= 91.5\ngini = 0.5\nsamples = 10\nvalue = [8, 9]\nclass = normal", fillcolor="#e9f4fc"] ;
334 -> 340 ;
341 [label="gini = 0.0\nsamples = 4\nvalue = [0, 6]\nclass = normal", fillcolor="#399de5"] ;
340 -> 341 ;
342 [label="loser_level <= 44.5\ngini = 0.4\nsamples = 6\nvalue = [8, 3]\nclass = attacker", fillcolor="#efb083"] ;
340 -> 342 ;
343 [label="gini = 0.0\nsamples = 3\nvalue = [6, 0]\nclass = attacker", fillcolor="#e58139"] ;
342 -> 343 ;
344 [label="loser_defense <= 91.0\ngini = 0.48\nsamples = 3\nvalue = [2, 3]\nclass = normal", fillcolor="#bddef6"] ;
342 -> 344 ;
345 [label="gini = 0.0\nsamples = 1\nvalue = [2, 0]\nclass = attacker", fillcolor="#e58139"] ;
344 -> 345 ;
346 [label="gini = 0.0\nsamples = 2\nvalue = [0, 3]\nclass = normal", fillcolor="#399de5"] ;
344 -> 346 ;
347 [label="winner_defense <= 120.0\ngini = 0.5\nsamples = 45\nvalue = [34, 38]\nclass = normal", fillcolor="#eaf5fc"] ;
279 -> 347 ;
348 [label="loser_speed <= 98.0\ngini = 0.47\nsamples = 36\nvalue = [21, 35]\nclass = normal", fillcolor="#b0d8f5"] ;
347 -> 348 ;
349 [label="winner_attack <= 138.5\ngini = 0.46\nsamples = 20\nvalue = [18, 10]\nclass = attacker", fillcolor="#f3c7a7"] ;
348 -> 349 ;
350 [label="loser_hp <= 117.0\ngini = 0.4\nsamples = 18\nvalue = [18, 7]\nclass = attacker", fillcolor="#efb286"] ;
349 -> 350 ;
351 [label="loser_type <= 10.5\ngini = 0.48\nsamples = 2\nvalue = [2, 3]\nclass = normal", fillcolor="#bddef6"] ;
350 -> 351 ;
352 [label="gini = 0.0\nsamples = 1\nvalue = [0, 3]\nclass = normal", fillcolor="#399de5"] ;
351 -> 352 ;
353 [label="gini = 0.0\nsamples = 1\nvalue = [2, 0]\nclass = attacker", fillcolor="#e58139"] ;
351 -> 353 ;
354 [label="loser_hp <= 192.0\ngini = 0.32\nsamples = 16\nvalue = [16, 4]\nclass = attacker", fillcolor="#eca06a"] ;
350 -> 354 ;
355 [label="loser_defense <= 140.5\ngini = 0.27\nsamples = 15\nvalue = [16, 3]\nclass = attacker", fillcolor="#ea995e"] ;
354 -> 355 ;
356 [label="loser_attack <= 99.5\ngini = 0.2\nsamples = 14\nvalue = [16, 2]\nclass = attacker", fillcolor="#e89152"] ;
355 -> 356 ;
357 [label="loser_type <= 3.5\ngini = 0.44\nsamples = 6\nvalue = [4, 2]\nclass = attacker", fillcolor="#f2c09c"] ;
356 -> 357 ;
358 [label="winner_speed <= 96.5\ngini = 0.44\nsamples = 3\nvalue = [1, 2]\nclass = normal", fillcolor="#9ccef2"] ;
357 -> 358 ;
359 [label="gini = 0.0\nsamples = 1\nvalue = [1, 0]\nclass = attacker", fillcolor="#e58139"] ;
358 -> 359 ;
360 [label="gini = 0.0\nsamples = 2\nvalue = [0, 2]\nclass = normal", fillcolor="#399de5"] ;
358 -> 360 ;
361 [label="gini = 0.0\nsamples = 3\nvalue = [3, 0]\nclass = attacker", fillcolor="#e58139"] ;
357 -> 361 ;
362 [label="gini = 0.0\nsamples = 8\nvalue = [12, 0]\nclass = attacker", fillcolor="#e58139"] ;
356 -> 362 ;
363 [label="gini = 0.0\nsamples = 1\nvalue = [0, 1]\nclass = normal", fillcolor="#399de5"] ;
355 -> 363 ;
364 [label="gini = 0.0\nsamples = 1\nvalue = [0, 1]\nclass = normal", fillcolor="#399de5"] ;
354 -> 364 ;
365 [label="gini = 0.0\nsamples = 2\nvalue = [0, 3]\nclass = normal", fillcolor="#399de5"] ;
349 -> 365 ;
366 [label="winner_type <= 6.0\ngini = 0.19\nsamples = 16\nvalue = [3, 25]\nclass = normal", fillcolor="#51a9e8"] ;
348 -> 366 ;
367 [label="winner_speed <= 91.5\ngini = 0.44\nsamples = 7\nvalue = [3, 6]\nclass = normal", fillcolor="#9ccef2"] ;
366 -> 367 ;
368 [label="gini = 0.0\nsamples = 3\nvalue = [0, 5]\nclass = normal", fillcolor="#399de5"] ;
367 -> 368 ;
369 [label="winner_type <= 2.5\ngini = 0.38\nsamples = 4\nvalue = [3, 1]\nclass = attacker", fillcolor="#eeab7b"] ;
367 -> 369 ;
370 [label="gini = 0.0\nsamples = 1\nvalue = [0, 1]\nclass = normal", fillcolor="#399de5"] ;
369 -> 370 ;
371 [label="gini = 0.0\nsamples = 3\nvalue = [3, 0]\nclass = attacker", fillcolor="#e58139"] ;
369 -> 371 ;
372 [label="gini = 0.0\nsamples = 9\nvalue = [0, 19]\nclass = normal", fillcolor="#399de5"] ;
366 -> 372 ;
373 [label="winner_speed <= 93.0\ngini = 0.3\nsamples = 9\nvalue = [13, 3]\nclass = attacker", fillcolor="#eb9e67"] ;
347 -> 373 ;
374 [label="gini = 0.0\nsamples = 2\nvalue = [0, 2]\nclass = normal", fillcolor="#399de5"] ;
373 -> 374 ;
375 [label="winner_attack <= 109.0\ngini = 0.13\nsamples = 7\nvalue = [13, 1]\nclass = attacker", fillcolor="#e78b48"] ;
373 -> 375 ;
376 [label="loser_level <= 47.0\ngini = 0.44\nsamples = 2\nvalue = [2, 1]\nclass = attacker", fillcolor="#f2c09c"] ;
375 -> 376 ;
377 [label="gini = 0.0\nsamples = 1\nvalue = [2, 0]\nclass = attacker", fillcolor="#e58139"] ;
376 -> 377 ;
378 [label="gini = 0.0\nsamples = 1\nvalue = [0, 1]\nclass = normal", fillcolor="#399de5"] ;
376 -> 378 ;
379 [label="gini = 0.0\nsamples = 5\nvalue = [11, 0]\nclass = attacker", fillcolor="#e58139"] ;
375 -> 379 ;
380 [label="loser_defense <= 94.5\ngini = 0.04\nsamples = 1076\nvalue = [1650, 31]\nclass = attacker", fillcolor="#e5833d"] ;
278 -> 380 ;
381 [label="winner_defense <= 366.5\ngini = 0.03\nsamples = 900\nvalue = [1395, 18]\nclass = attacker", fillcolor="#e5833c"] ;
380 -> 381 ;
382 [label="winner_type <= 12.5\ngini = 0.02\nsamples = 898\nvalue = [1394, 14]\nclass = attacker", fillcolor="#e5823b"] ;
381 -> 382 ;
383 [label="loser_attack <= 21.5\ngini = 0.01\nsamples = 824\nvalue = [1286, 6]\nclass = attacker", fillcolor="#e5823a"] ;
382 -> 383 ;
384 [label="loser_attack <= 20.5\ngini = 0.04\nsamples = 165\nvalue = [261, 6]\nclass = attacker", fillcolor="#e6843e"] ;
383 -> 384 ;
385 [label="loser_type <= 1.5\ngini = 0.02\nsamples = 152\nvalue = [239, 3]\nclass = attacker", fillcolor="#e5833b"] ;
384 -> 385 ;
386 [label="loser_speed <= 11.5\ngini = 0.12\nsamples = 27\nvalue = [43, 3]\nclass = attacker", fillcolor="#e78a47"] ;
385 -> 386 ;
387 [label="loser_level <= 2.5\ngini = 0.32\nsamples = 9\nvalue = [12, 3]\nclass = attacker", fillcolor="#eca06a"] ;
386 -> 387 ;
388 [label="gini = 0.0\nsamples = 6\nvalue = [9, 0]\nclass = attacker", fillcolor="#e58139"] ;
387 -> 388 ;
389 [label="winner_attack <= 138.0\ngini = 0.5\nsamples = 3\nvalue = [3, 3]\nclass = attacker", fillcolor="#ffffff"] ;
387 -> 389 ;
390 [label="gini = 0.0\nsamples = 2\nvalue = [3, 0]\nclass = attacker", fillcolor="#e58139"] ;
389 -> 390 ;
391 [label="gini = 0.0\nsamples = 1\nvalue = [0, 3]\nclass = normal", fillcolor="#399de5"] ;
389 -> 391 ;
392 [label="gini = 0.0\nsamples = 18\nvalue = [31, 0]\nclass = attacker", fillcolor="#e58139"] ;
386 -> 392 ;
393 [label="gini = 0.0\nsamples = 125\nvalue = [196, 0]\nclass = attacker", fillcolor="#e58139"] ;
385 -> 393 ;
394 [label="winner_attack <= 154.5\ngini = 0.21\nsamples = 13\nvalue = [22, 3]\nclass = attacker", fillcolor="#e99254"] ;
384 -> 394 ;
395 [label="gini = 0.0\nsamples = 7\nvalue = [14, 0]\nclass = attacker", fillcolor="#e58139"] ;
394 -> 395 ;
396 [label="winner_speed <= 239.0\ngini = 0.4\nsamples = 6\nvalue = [8, 3]\nclass = attacker", fillcolor="#efb083"] ;
394 -> 396 ;
397 [label="gini = 0.0\nsamples = 5\nvalue = [8, 0]\nclass = attacker", fillcolor="#e58139"] ;
396 -> 397 ;
398 [label="gini = 0.0\nsamples = 1\nvalue = [0, 3]\nclass = normal", fillcolor="#399de5"] ;
396 -> 398 ;
399 [label="gini = 0.0\nsamples = 659\nvalue = [1025, 0]\nclass = attacker", fillcolor="#e58139"] ;
383 -> 399 ;
400 [label="winner_defense <= 269.0\ngini = 0.13\nsamples = 74\nvalue = [108, 8]\nclass = attacker", fillcolor="#e78a48"] ;
382 -> 400 ;
401 [label="winner_speed <= 109.0\ngini = 0.02\nsamples = 59\nvalue = [90, 1]\nclass = attacker", fillcolor="#e5823b"] ;
400 -> 401 ;
402 [label="winner_defense <= 218.5\ngini = 0.24\nsamples = 5\nvalue = [6, 1]\nclass = attacker", fillcolor="#e9965a"] ;
401 -> 402 ;
403 [label="gini = 0.0\nsamples = 4\nvalue = [6, 0]\nclass = attacker", fillcolor="#e58139"] ;
402 -> 403 ;
404 [label="gini = 0.0\nsamples = 1\nvalue = [0, 1]\nclass = normal", fillcolor="#399de5"] ;
402 -> 404 ;
405 [label="gini = 0.0\nsamples = 54\nvalue = [84, 0]\nclass = attacker", fillcolor="#e58139"] ;
401 -> 405 ;
406 [label="winner_hp <= 257.5\ngini = 0.4\nsamples = 15\nvalue = [18, 7]\nclass = attacker", fillcolor="#efb286"] ;
400 -> 406 ;
407 [label="loser_attack <= 84.5\ngini = 0.24\nsamples = 4\nvalue = [1, 6]\nclass = normal", fillcolor="#5aade9"] ;
406 -> 407 ;
408 [label="gini = 0.0\nsamples = 3\nvalue = [0, 6]\nclass = normal", fillcolor="#399de5"] ;
407 -> 408 ;
409 [label="gini = 0.0\nsamples = 1\nvalue = [1, 0]\nclass = attacker", fillcolor="#e58139"] ;
407 -> 409 ;
410 [label="loser_attack <= 70.5\ngini = 0.1\nsamples = 11\nvalue = [17, 1]\nclass = attacker", fillcolor="#e78845"] ;
406 -> 410 ;
411 [label="gini = 0.0\nsamples = 8\nvalue = [14, 0]\nclass = attacker", fillcolor="#e58139"] ;
410 -> 411 ;
412 [label="loser_level <= 34.0\ngini = 0.38\nsamples = 3\nvalue = [3, 1]\nclass = attacker", fillcolor="#eeab7b"] ;
410 -> 412 ;
413 [label="gini = 0.0\nsamples = 1\nvalue = [0, 1]\nclass = normal", fillcolor="#399de5"] ;
412 -> 413 ;
414 [label="gini = 0.0\nsamples = 2\nvalue = [3, 0]\nclass = attacker", fillcolor="#e58139"] ;
412 -> 414 ;
415 [label="winner_level <= 94.5\ngini = 0.32\nsamples = 2\nvalue = [1, 4]\nclass = normal", fillcolor="#6ab6ec"] ;
381 -> 415 ;
416 [label="gini = 0.0\nsamples = 1\nvalue = [0, 4]\nclass = normal", fillcolor="#399de5"] ;
415 -> 416 ;
417 [label="gini = 0.0\nsamples = 1\nvalue = [1, 0]\nclass = attacker", fillcolor="#e58139"] ;
415 -> 417 ;
418 [label="loser_level <= 43.5\ngini = 0.09\nsamples = 176\nvalue = [255, 13]\nclass = attacker", fillcolor="#e68743"] ;
380 -> 418 ;
419 [label="loser_hp <= 162.5\ngini = 0.15\nsamples = 56\nvalue = [77, 7]\nclass = attacker", fillcolor="#e78c4b"] ;
418 -> 419 ;
420 [label="loser_speed <= 106.0\ngini = 0.08\nsamples = 49\nvalue = [72, 3]\nclass = attacker", fillcolor="#e68641"] ;
419 -> 420 ;
421 [label="gini = 0.0\nsamples = 40\nvalue = [60, 0]\nclass = attacker", fillcolor="#e58139"] ;
420 -> 421 ;
422 [label="loser_speed <= 122.0\ngini = 0.32\nsamples = 9\nvalue = [12, 3]\nclass = attacker", fillcolor="#eca06a"] ;
420 -> 422 ;
423 [label="winner_attack <= 115.5\ngini = 0.49\nsamples = 5\nvalue = [4, 3]\nclass = attacker", fillcolor="#f8e0ce"] ;
422 -> 423 ;
424 [label="gini = 0.0\nsamples = 1\nvalue = [0, 2]\nclass = normal", fillcolor="#399de5"] ;
423 -> 424 ;
425 [label="winner_level <= 83.5\ngini = 0.32\nsamples = 4\nvalue = [4, 1]\nclass = attacker", fillcolor="#eca06a"] ;
423 -> 425 ;
426 [label="gini = 0.0\nsamples = 3\nvalue = [4, 0]\nclass = attacker", fillcolor="#e58139"] ;
425 -> 426 ;
427 [label="gini = 0.0\nsamples = 1\nvalue = [0, 1]\nclass = normal", fillcolor="#399de5"] ;
425 -> 427 ;
428 [label="gini = 0.0\nsamples = 4\nvalue = [8, 0]\nclass = attacker", fillcolor="#e58139"] ;
422 -> 428 ;
429 [label="winner_attack <= 187.5\ngini = 0.49\nsamples = 7\nvalue = [5, 4]\nclass = attacker", fillcolor="#fae6d7"] ;
419 -> 429 ;
430 [label="gini = 0.0\nsamples = 4\nvalue = [4, 0]\nclass = attacker", fillcolor="#e58139"] ;
429 -> 430 ;
431 [label="loser_attack <= 104.0\ngini = 0.32\nsamples = 3\nvalue = [1, 4]\nclass = normal", fillcolor="#6ab6ec"] ;
429 -> 431 ;
432 [label="gini = 0.0\nsamples = 1\nvalue = [1, 0]\nclass = attacker", fillcolor="#e58139"] ;
431 -> 432 ;
433 [label="gini = 0.0\nsamples = 2\nvalue = [0, 4]\nclass = normal", fillcolor="#399de5"] ;
431 -> 433 ;
434 [label="winner_speed <= 86.0\ngini = 0.06\nsamples = 120\nvalue = [178, 6]\nclass = attacker", fillcolor="#e68540"] ;
418 -> 434 ;
435 [label="gini = 0.0\nsamples = 1\nvalue = [0, 1]\nclass = normal", fillcolor="#399de5"] ;
434 -> 435 ;
436 [label="winner_attack <= 145.5\ngini = 0.05\nsamples = 119\nvalue = [178, 5]\nclass = attacker", fillcolor="#e6853f"] ;
434 -> 436 ;
437 [label="loser_defense <= 151.5\ngini = 0.17\nsamples = 26\nvalue = [39, 4]\nclass = attacker", fillcolor="#e88e4d"] ;
436 -> 437 ;
438 [label="loser_hp <= 128.0\ngini = 0.13\nsamples = 25\nvalue = [39, 3]\nclass = attacker", fillcolor="#e78b48"] ;
437 -> 438 ;
439 [label="gini = 0.0\nsamples = 1\nvalue = [0, 1]\nclass = normal", fillcolor="#399de5"] ;
438 -> 439 ;
440 [label="winner_defense <= 188.5\ngini = 0.09\nsamples = 24\nvalue = [39, 2]\nclass = attacker", fillcolor="#e68743"] ;
438 -> 440 ;
441 [label="gini = 0.0\nsamples = 21\nvalue = [35, 0]\nclass = attacker", fillcolor="#e58139"] ;
440 -> 441 ;
442 [label="winner_defense <= 204.5\ngini = 0.44\nsamples = 3\nvalue = [4, 2]\nclass = attacker", fillcolor="#f2c09c"] ;
440 -> 442 ;
443 [label="gini = 0.0\nsamples = 1\nvalue = [0, 2]\nclass = normal", fillcolor="#399de5"] ;
442 -> 443 ;
444 [label="gini = 0.0\nsamples = 2\nvalue = [4, 0]\nclass = attacker", fillcolor="#e58139"] ;
442 -> 444 ;
445 [label="gini = 0.0\nsamples = 1\nvalue = [0, 1]\nclass = normal", fillcolor="#399de5"] ;
437 -> 445 ;
446 [label="winner_attack <= 164.5\ngini = 0.01\nsamples = 93\nvalue = [139, 1]\nclass = attacker", fillcolor="#e5823a"] ;
436 -> 446 ;
447 [label="winner_attack <= 163.5\ngini = 0.07\nsamples = 17\nvalue = [25, 1]\nclass = attacker", fillcolor="#e68641"] ;
446 -> 447 ;
448 [label="gini = 0.0\nsamples = 15\nvalue = [24, 0]\nclass = attacker", fillcolor="#e58139"] ;
447 -> 448 ;
449 [label="loser_defense <= 119.0\ngini = 0.5\nsamples = 2\nvalue = [1, 1]\nclass = attacker", fillcolor="#ffffff"] ;
447 -> 449 ;
450 [label="gini = 0.0\nsamples = 1\nvalue = [1, 0]\nclass = attacker", fillcolor="#e58139"] ;
449 -> 450 ;
451 [label="gini = 0.0\nsamples = 1\nvalue = [0, 1]\nclass = normal", fillcolor="#399de5"] ;
449 -> 451 ;
452 [label="gini = 0.0\nsamples = 76\nvalue = [114, 0]\nclass = attacker", fillcolor="#e58139"] ;
446 -> 452 ;
453 [label="winner_level <= 61.5\ngini = 0.46\nsamples = 257\nvalue = [262, 147]\nclass = attacker", fillcolor="#f4c8a8"] ;
277 -> 453 ;
454 [label="loser_level <= 50.5\ngini = 0.4\nsamples = 97\nvalue = [45, 115]\nclass = normal", fillcolor="#86c3ef"] ;
453 -> 454 ;
455 [label="winner_attack <= 110.0\ngini = 0.5\nsamples = 36\nvalue = [31, 27]\nclass = attacker", fillcolor="#fcefe5"] ;
454 -> 455 ;
456 [label="loser_speed <= 92.5\ngini = 0.36\nsamples = 14\nvalue = [6, 20]\nclass = normal", fillcolor="#74baed"] ;
455 -> 456 ;
457 [label="winner_level <= 46.5\ngini = 0.48\nsamples = 5\nvalue = [6, 4]\nclass = attacker", fillcolor="#f6d5bd"] ;
456 -> 457 ;
458 [label="gini = 0.0\nsamples = 2\nvalue = [6, 0]\nclass = attacker", fillcolor="#e58139"] ;
457 -> 458 ;
459 [label="gini = 0.0\nsamples = 3\nvalue = [0, 4]\nclass = normal", fillcolor="#399de5"] ;
457 -> 459 ;
460 [label="gini = 0.0\nsamples = 9\nvalue = [0, 16]\nclass = normal", fillcolor="#399de5"] ;
456 -> 460 ;
461 [label="loser_type <= 3.5\ngini = 0.34\nsamples = 22\nvalue = [25, 7]\nclass = attacker", fillcolor="#eca470"] ;
455 -> 461 ;
462 [label="winner_speed <= 94.5\ngini = 0.47\nsamples = 10\nvalue = [10, 6]\nclass = attacker", fillcolor="#f5cdb0"] ;
461 -> 462 ;
463 [label="gini = 0.0\nsamples = 2\nvalue = [0, 4]\nclass = normal", fillcolor="#399de5"] ;
462 -> 463 ;
464 [label="winner_type <= 1.5\ngini = 0.28\nsamples = 8\nvalue = [10, 2]\nclass = attacker", fillcolor="#ea9a61"] ;
462 -> 464 ;
465 [label="winner_attack <= 139.0\ngini = 0.44\nsamples = 2\nvalue = [1, 2]\nclass = normal", fillcolor="#9ccef2"] ;
464 -> 465 ;
466 [label="gini = 0.0\nsamples = 1\nvalue = [0, 2]\nclass = normal", fillcolor="#399de5"] ;
465 -> 466 ;
467 [label="gini = 0.0\nsamples = 1\nvalue = [1, 0]\nclass = attacker", fillcolor="#e58139"] ;
465 -> 467 ;
468 [label="gini = 0.0\nsamples = 6\nvalue = [9, 0]\nclass = attacker", fillcolor="#e58139"] ;
464 -> 468 ;
469 [label="loser_defense <= 136.0\ngini = 0.12\nsamples = 12\nvalue = [15, 1]\nclass = attacker", fillcolor="#e78946"] ;
461 -> 469 ;
470 [label="gini = 0.0\nsamples = 9\nvalue = [12, 0]\nclass = attacker", fillcolor="#e58139"] ;
469 -> 470 ;
471 [label="winner_attack <= 127.5\ngini = 0.38\nsamples = 3\nvalue = [3, 1]\nclass = attacker", fillcolor="#eeab7b"] ;
469 -> 471 ;
472 [label="gini = 0.0\nsamples = 1\nvalue = [0, 1]\nclass = normal", fillcolor="#399de5"] ;
471 -> 472 ;
473 [label="gini = 0.0\nsamples = 2\nvalue = [3, 0]\nclass = attacker", fillcolor="#e58139"] ;
471 -> 473 ;
474 [label="winner_attack <= 133.0\ngini = 0.24\nsamples = 61\nvalue = [14, 88]\nclass = normal", fillcolor="#58ade9"] ;
454 -> 474 ;
475 [label="loser_speed <= 70.0\ngini = 0.07\nsamples = 47\nvalue = [3, 79]\nclass = normal", fillcolor="#41a1e6"] ;
474 -> 475 ;
476 [label="gini = 0.0\nsamples = 1\nvalue = [1, 0]\nclass = attacker", fillcolor="#e58139"] ;
475 -> 476 ;
477 [label="winner_defense <= 181.5\ngini = 0.05\nsamples = 46\nvalue = [2, 79]\nclass = normal", fillcolor="#3e9fe6"] ;
475 -> 477 ;
478 [label="loser_level <= 51.5\ngini = 0.02\nsamples = 44\nvalue = [1, 78]\nclass = normal", fillcolor="#3c9ee5"] ;
477 -> 478 ;
479 [label="loser_hp <= 188.0\ngini = 0.15\nsamples = 6\nvalue = [1, 11]\nclass = normal", fillcolor="#4ba6e7"] ;
478 -> 479 ;
480 [label="gini = 0.0\nsamples = 5\nvalue = [0, 11]\nclass = normal", fillcolor="#399de5"] ;
479 -> 480 ;
481 [label="gini = 0.0\nsamples = 1\nvalue = [1, 0]\nclass = attacker", fillcolor="#e58139"] ;
479 -> 481 ;
482 [label="gini = 0.0\nsamples = 38\nvalue = [0, 67]\nclass = normal", fillcolor="#399de5"] ;
478 -> 482 ;
483 [label="winner_type <= 8.5\ngini = 0.5\nsamples = 2\nvalue = [1, 1]\nclass = attacker", fillcolor="#ffffff"] ;
477 -> 483 ;
484 [label="gini = 0.0\nsamples = 1\nvalue = [1, 0]\nclass = attacker", fillcolor="#e58139"] ;
483 -> 484 ;
485 [label="gini = 0.0\nsamples = 1\nvalue = [0, 1]\nclass = normal", fillcolor="#399de5"] ;
483 -> 485 ;
486 [label="winner_hp <= 175.0\ngini = 0.5\nsamples = 14\nvalue = [11, 9]\nclass = attacker", fillcolor="#fae8db"] ;
474 -> 486 ;
487 [label="gini = 0.0\nsamples = 5\nvalue = [0, 6]\nclass = normal", fillcolor="#399de5"] ;
486 -> 487 ;
488 [label="loser_defense <= 113.5\ngini = 0.34\nsamples = 9\nvalue = [11, 3]\nclass = attacker", fillcolor="#eca36f"] ;
486 -> 488 ;
489 [label="gini = 0.0\nsamples = 2\nvalue = [6, 0]\nclass = attacker", fillcolor="#e58139"] ;
488 -> 489 ;
490 [label="winner_hp <= 190.5\ngini = 0.47\nsamples = 7\nvalue = [5, 3]\nclass = attacker", fillcolor="#f5cdb0"] ;
488 -> 490 ;
491 [label="gini = 0.0\nsamples = 2\nvalue = [0, 2]\nclass = normal", fillcolor="#399de5"] ;
490 -> 491 ;
492 [label="loser_type <= 1.5\ngini = 0.28\nsamples = 5\nvalue = [5, 1]\nclass = attacker", fillcolor="#ea9a61"] ;
490 -> 492 ;
493 [label="gini = 0.0\nsamples = 3\nvalue = [4, 0]\nclass = attacker", fillcolor="#e58139"] ;
492 -> 493 ;
494 [label="loser_defense <= 137.5\ngini = 0.5\nsamples = 2\nvalue = [1, 1]\nclass = attacker", fillcolor="#ffffff"] ;
492 -> 494 ;
495 [label="gini = 0.0\nsamples = 1\nvalue = [0, 1]\nclass = normal", fillcolor="#399de5"] ;
494 -> 495 ;
496 [label="gini = 0.0\nsamples = 1\nvalue = [1, 0]\nclass = attacker", fillcolor="#e58139"] ;
494 -> 496 ;
497 [label="winner_level <= 75.5\ngini = 0.22\nsamples = 160\nvalue = [217, 32]\nclass = attacker", fillcolor="#e99456"] ;
453 -> 497 ;
498 [label="winner_attack <= 155.0\ngini = 0.41\nsamples = 59\nvalue = [65, 27]\nclass = attacker", fillcolor="#f0b58b"] ;
497 -> 498 ;
499 [label="loser_hp <= 191.0\ngini = 0.47\nsamples = 27\nvalue = [14, 23]\nclass = normal", fillcolor="#b2d9f5"] ;
498 -> 499 ;
500 [label="loser_attack <= 154.0\ngini = 0.29\nsamples = 14\nvalue = [14, 3]\nclass = attacker", fillcolor="#eb9c63"] ;
499 -> 500 ;
501 [label="winner_defense <= 165.0\ngini = 0.12\nsamples = 12\nvalue = [14, 1]\nclass = attacker", fillcolor="#e78a47"] ;
500 -> 501 ;
502 [label="gini = 0.0\nsamples = 10\nvalue = [13, 0]\nclass = attacker", fillcolor="#e58139"] ;
501 -> 502 ;
503 [label="winner_level <= 70.0\ngini = 0.5\nsamples = 2\nvalue = [1, 1]\nclass = attacker", fillcolor="#ffffff"] ;
501 -> 503 ;
504 [label="gini = 0.0\nsamples = 1\nvalue = [1, 0]\nclass = attacker", fillcolor="#e58139"] ;
503 -> 504 ;
505 [label="gini = 0.0\nsamples = 1\nvalue = [0, 1]\nclass = normal", fillcolor="#399de5"] ;
503 -> 505 ;
506 [label="gini = 0.0\nsamples = 2\nvalue = [0, 2]\nclass = normal", fillcolor="#399de5"] ;
500 -> 506 ;
507 [label="gini = 0.0\nsamples = 13\nvalue = [0, 20]\nclass = normal", fillcolor="#399de5"] ;
499 -> 507 ;
508 [label="winner_type <= 12.5\ngini = 0.13\nsamples = 32\nvalue = [51, 4]\nclass = attacker", fillcolor="#e78b49"] ;
498 -> 508 ;
509 [label="loser_hp <= 223.5\ngini = 0.04\nsamples = 27\nvalue = [48, 1]\nclass = attacker", fillcolor="#e6843d"] ;
508 -> 509 ;
510 [label="gini = 0.0\nsamples = 26\nvalue = [48, 0]\nclass = attacker", fillcolor="#e58139"] ;
509 -> 510 ;
511 [label="gini = 0.0\nsamples = 1\nvalue = [0, 1]\nclass = normal", fillcolor="#399de5"] ;
509 -> 511 ;
512 [label="winner_defense <= 202.5\ngini = 0.5\nsamples = 5\nvalue = [3, 3]\nclass = attacker", fillcolor="#ffffff"] ;
508 -> 512 ;
513 [label="gini = 0.0\nsamples = 2\nvalue = [2, 0]\nclass = attacker", fillcolor="#e58139"] ;
512 -> 513 ;
514 [label="loser_level <= 48.0\ngini = 0.38\nsamples = 3\nvalue = [1, 3]\nclass = normal", fillcolor="#7bbeee"] ;
512 -> 514 ;
515 [label="gini = 0.0\nsamples = 2\nvalue = [0, 3]\nclass = normal", fillcolor="#399de5"] ;
514 -> 515 ;
516 [label="gini = 0.0\nsamples = 1\nvalue = [1, 0]\nclass = attacker", fillcolor="#e58139"] ;
514 -> 516 ;
517 [label="loser_level <= 54.5\ngini = 0.06\nsamples = 101\nvalue = [152, 5]\nclass = attacker", fillcolor="#e68540"] ;
497 -> 517 ;
518 [label="gini = 0.0\nsamples = 53\nvalue = [81, 0]\nclass = attacker", fillcolor="#e58139"] ;
517 -> 518 ;
519 [label="winner_attack <= 176.5\ngini = 0.12\nsamples = 48\nvalue = [71, 5]\nclass = attacker", fillcolor="#e78a47"] ;
517 -> 519 ;
520 [label="loser_speed <= 168.5\ngini = 0.31\nsamples = 16\nvalue = [17, 4]\nclass = attacker", fillcolor="#eb9f68"] ;
519 -> 520 ;
521 [label="loser_hp <= 192.5\ngini = 0.2\nsamples = 13\nvalue = [16, 2]\nclass = attacker", fillcolor="#e89152"] ;
520 -> 521 ;
522 [label="gini = 0.0\nsamples = 5\nvalue = [10, 0]\nclass = attacker", fillcolor="#e58139"] ;
521 -> 522 ;
523 [label="winner_attack <= 173.5\ngini = 0.38\nsamples = 8\nvalue = [6, 2]\nclass = attacker", fillcolor="#eeab7b"] ;
521 -> 523 ;
524 [label="loser_level <= 56.5\ngini = 0.24\nsamples = 7\nvalue = [6, 1]\nclass = attacker", fillcolor="#e9965a"] ;
523 -> 524 ;
525 [label="gini = 0.0\nsamples = 1\nvalue = [0, 1]\nclass = normal", fillcolor="#399de5"] ;
524 -> 525 ;
526 [label="gini = 0.0\nsamples = 6\nvalue = [6, 0]\nclass = attacker", fillcolor="#e58139"] ;
524 -> 526 ;
527 [label="gini = 0.0\nsamples = 1\nvalue = [0, 1]\nclass = normal", fillcolor="#399de5"] ;
523 -> 527 ;
528 [label="winner_level <= 89.5\ngini = 0.44\nsamples = 3\nvalue = [1, 2]\nclass = normal", fillcolor="#9ccef2"] ;
520 -> 528 ;
529 [label="gini = 0.0\nsamples = 2\nvalue = [0, 2]\nclass = normal", fillcolor="#399de5"] ;
528 -> 529 ;
530 [label="gini = 0.0\nsamples = 1\nvalue = [1, 0]\nclass = attacker", fillcolor="#e58139"] ;
528 -> 530 ;
531 [label="loser_level <= 55.5\ngini = 0.04\nsamples = 32\nvalue = [54, 1]\nclass = attacker", fillcolor="#e5833d"] ;
519 -> 531 ;
532 [label="winner_attack <= 244.5\ngini = 0.32\nsamples = 4\nvalue = [4, 1]\nclass = attacker", fillcolor="#eca06a"] ;
531 -> 532 ;
533 [label="winner_defense <= 184.5\ngini = 0.5\nsamples = 2\nvalue = [1, 1]\nclass = attacker", fillcolor="#ffffff"] ;
532 -> 533 ;
534 [label="gini = 0.0\nsamples = 1\nvalue = [0, 1]\nclass = normal", fillcolor="#399de5"] ;
533 -> 534 ;
535 [label="gini = 0.0\nsamples = 1\nvalue = [1, 0]\nclass = attacker", fillcolor="#e58139"] ;
533 -> 535 ;
536 [label="gini = 0.0\nsamples = 2\nvalue = [3, 0]\nclass = attacker", fillcolor="#e58139"] ;
532 -> 536 ;
537 [label="gini = 0.0\nsamples = 28\nvalue = [50, 0]\nclass = attacker", fillcolor="#e58139"] ;
531 -> 537 ;
538 [label="winner_hp <= 250.5\ngini = 0.45\nsamples = 1026\nvalue = [574, 1066]\nclass = normal", fillcolor="#a4d2f3"] ;
276 -> 538 ;
539 [label="winner_hp <= 206.5\ngini = 0.32\nsamples = 694\nvalue = [229, 902]\nclass = normal", fillcolor="#6bb6ec"] ;
538 -> 539 ;
540 [label="loser_defense <= 129.5\ngini = 0.19\nsamples = 444\nvalue = [74, 634]\nclass = normal", fillcolor="#50a8e8"] ;
539 -> 540 ;
541 [label="loser_speed <= 108.5\ngini = 0.45\nsamples = 66\nvalue = [36, 69]\nclass = normal", fillcolor="#a0d0f3"] ;
540 -> 541 ;
542 [label="gini = 0.0\nsamples = 5\nvalue = [12, 0]\nclass = attacker", fillcolor="#e58139"] ;
541 -> 542 ;
543 [label="winner_level <= 72.5\ngini = 0.38\nsamples = 61\nvalue = [24, 69]\nclass = normal", fillcolor="#7ebfee"] ;
541 -> 543 ;
544 [label="winner_attack <= 120.5\ngini = 0.32\nsamples = 52\nvalue = [16, 64]\nclass = normal", fillcolor="#6ab6ec"] ;
543 -> 544 ;
545 [label="winner_hp <= 167.0\ngini = 0.08\nsamples = 34\nvalue = [2, 46]\nclass = normal", fillcolor="#42a1e6"] ;
544 -> 545 ;
546 [label="gini = 0.0\nsamples = 29\nvalue = [0, 42]\nclass = normal", fillcolor="#399de5"] ;
545 -> 546 ;
547 [label="winner_level <= 60.0\ngini = 0.44\nsamples = 5\nvalue = [2, 4]\nclass = normal", fillcolor="#9ccef2"] ;
545 -> 547 ;
548 [label="gini = 0.0\nsamples = 2\nvalue = [2, 0]\nclass = attacker", fillcolor="#e58139"] ;
547 -> 548 ;
549 [label="gini = 0.0\nsamples = 3\nvalue = [0, 4]\nclass = normal", fillcolor="#399de5"] ;
547 -> 549 ;
550 [label="loser_speed <= 152.0\ngini = 0.49\nsamples = 18\nvalue = [14, 18]\nclass = normal", fillcolor="#d3e9f9"] ;
544 -> 550 ;
551 [label="winner_defense <= 129.5\ngini = 0.48\nsamples = 9\nvalue = [11, 7]\nclass = attacker", fillcolor="#f6d1b7"] ;
550 -> 551 ;
552 [label="loser_hp <= 181.0\ngini = 0.35\nsamples = 5\nvalue = [2, 7]\nclass = normal", fillcolor="#72b9ec"] ;
551 -> 552 ;
553 [label="gini = 0.0\nsamples = 1\nvalue = [2, 0]\nclass = attacker", fillcolor="#e58139"] ;
552 -> 553 ;
554 [label="gini = 0.0\nsamples = 4\nvalue = [0, 7]\nclass = normal", fillcolor="#399de5"] ;
552 -> 554 ;
555 [label="gini = 0.0\nsamples = 4\nvalue = [9, 0]\nclass = attacker", fillcolor="#e58139"] ;
551 -> 555 ;
556 [label="winner_attack <= 128.0\ngini = 0.34\nsamples = 9\nvalue = [3, 11]\nclass = normal", fillcolor="#6fb8ec"] ;
550 -> 556 ;
557 [label="gini = 0.0\nsamples = 2\nvalue = [3, 0]\nclass = attacker", fillcolor="#e58139"] ;
556 -> 557 ;
558 [label="gini = 0.0\nsamples = 7\nvalue = [0, 11]\nclass = normal", fillcolor="#399de5"] ;
556 -> 558 ;
559 [label="loser_defense <= 118.0\ngini = 0.47\nsamples = 9\nvalue = [8, 5]\nclass = attacker", fillcolor="#f5d0b5"] ;
543 -> 559 ;
560 [label="gini = 0.0\nsamples = 6\nvalue = [7, 0]\nclass = attacker", fillcolor="#e58139"] ;
559 -> 560 ;
561 [label="winner_attack <= 184.5\ngini = 0.28\nsamples = 3\nvalue = [1, 5]\nclass = normal", fillcolor="#61b1ea"] ;
559 -> 561 ;
562 [label="gini = 0.0\nsamples = 2\nvalue = [0, 5]\nclass = normal", fillcolor="#399de5"] ;
561 -> 562 ;
563 [label="gini = 0.0\nsamples = 1\nvalue = [1, 0]\nclass = attacker", fillcolor="#e58139"] ;
561 -> 563 ;
564 [label="loser_speed <= 347.5\ngini = 0.12\nsamples = 378\nvalue = [38, 565]\nclass = normal", fillcolor="#46a4e7"] ;
540 -> 564 ;
565 [label="winner_defense <= 232.0\ngini = 0.11\nsamples = 377\nvalue = [36, 565]\nclass = normal", fillcolor="#46a3e7"] ;
564 -> 565 ;
566 [label="winner_attack <= 171.0\ngini = 0.1\nsamples = 374\nvalue = [32, 565]\nclass = normal", fillcolor="#44a3e6"] ;
565 -> 566 ;
567 [label="loser_defense <= 168.5\ngini = 0.07\nsamples = 343\nvalue = [21, 530]\nclass = normal", fillcolor="#41a1e6"] ;
566 -> 567 ;
568 [label="loser_speed <= 277.0\ngini = 0.13\nsamples = 123\nvalue = [14, 189]\nclass = normal", fillcolor="#48a4e7"] ;
567 -> 568 ;
569 [label="winner_hp <= 168.5\ngini = 0.11\nsamples = 121\nvalue = [12, 188]\nclass = normal", fillcolor="#46a3e7"] ;
568 -> 569 ;
570 [label="gini = 0.0\nsamples = 59\nvalue = [0, 101]\nclass = normal", fillcolor="#399de5"] ;
569 -> 570 ;
571 [label="winner_type <= 4.5\ngini = 0.21\nsamples = 62\nvalue = [12, 87]\nclass = normal", fillcolor="#54abe9"] ;
569 -> 571 ;
572 [label="winner_type <= 1.5\ngini = 0.35\nsamples = 33\nvalue = [11, 37]\nclass = normal", fillcolor="#74baed"] ;
571 -> 572 ;
573 [label="gini = 0.0\nsamples = 11\nvalue = [0, 21]\nclass = normal", fillcolor="#399de5"] ;
572 -> 573 ;
574 [label="loser_level <= 79.5\ngini = 0.48\nsamples = 22\nvalue = [11, 16]\nclass = normal", fillcolor="#c1e0f7"] ;
572 -> 574 ;
575 [label="loser_speed <= 199.5\ngini = 0.48\nsamples = 13\nvalue = [9, 6]\nclass = attacker", fillcolor="#f6d5bd"] ;
574 -> 575 ;
576 [label="winner_level <= 62.0\ngini = 0.48\nsamples = 10\nvalue = [4, 6]\nclass = normal", fillcolor="#bddef6"] ;
575 -> 576 ;
577 [label="loser_level <= 66.5\ngini = 0.44\nsamples = 6\nvalue = [4, 2]\nclass = attacker", fillcolor="#f2c09c"] ;
576 -> 577 ;
578 [label="gini = 0.0\nsamples = 2\nvalue = [0, 2]\nclass = normal", fillcolor="#399de5"] ;
577 -> 578 ;
579 [label="gini = 0.0\nsamples = 4\nvalue = [4, 0]\nclass = attacker", fillcolor="#e58139"] ;
577 -> 579 ;
580 [label="gini = 0.0\nsamples = 4\nvalue = [0, 4]\nclass = normal", fillcolor="#399de5"] ;
576 -> 580 ;
581 [label="gini = 0.0\nsamples = 3\nvalue = [5, 0]\nclass = attacker", fillcolor="#e58139"] ;
575 -> 581 ;
582 [label="winner_attack <= 146.0\ngini = 0.28\nsamples = 9\nvalue = [2, 10]\nclass = normal", fillcolor="#61b1ea"] ;
574 -> 582 ;
583 [label="gini = 0.0\nsamples = 7\nvalue = [0, 9]\nclass = normal", fillcolor="#399de5"] ;
582 -> 583 ;
584 [label="loser_hp <= 245.0\ngini = 0.44\nsamples = 2\nvalue = [2, 1]\nclass = attacker", fillcolor="#f2c09c"] ;
582 -> 584 ;
585 [label="gini = 0.0\nsamples = 1\nvalue = [2, 0]\nclass = attacker", fillcolor="#e58139"] ;
584 -> 585 ;
586 [label="gini = 0.0\nsamples = 1\nvalue = [0, 1]\nclass = normal", fillcolor="#399de5"] ;
584 -> 586 ;
587 [label="loser_defense <= 161.0\ngini = 0.04\nsamples = 29\nvalue = [1, 50]\nclass = normal", fillcolor="#3d9fe6"] ;
571 -> 587 ;
588 [label="gini = 0.0\nsamples = 24\nvalue = [0, 41]\nclass = normal", fillcolor="#399de5"] ;
587 -> 588 ;
589 [label="winner_attack <= 116.0\ngini = 0.18\nsamples = 5\nvalue = [1, 9]\nclass = normal", fillcolor="#4fa8e8"] ;
587 -> 589 ;
590 [label="gini = 0.0\nsamples = 1\nvalue = [1, 0]\nclass = attacker", fillcolor="#e58139"] ;
589 -> 590 ;
591 [label="gini = 0.0\nsamples = 4\nvalue = [0, 9]\nclass = normal", fillcolor="#399de5"] ;
589 -> 591 ;
592 [label="winner_level <= 50.0\ngini = 0.44\nsamples = 2\nvalue = [2, 1]\nclass = attacker", fillcolor="#f2c09c"] ;
568 -> 592 ;
593 [label="gini = 0.0\nsamples = 1\nvalue = [2, 0]\nclass = attacker", fillcolor="#e58139"] ;
592 -> 593 ;
594 [label="gini = 0.0\nsamples = 1\nvalue = [0, 1]\nclass = normal", fillcolor="#399de5"] ;
592 -> 594 ;
595 [label="winner_defense <= 154.5\ngini = 0.04\nsamples = 220\nvalue = [7, 341]\nclass = normal", fillcolor="#3d9fe6"] ;
567 -> 595 ;
596 [label="winner_level <= 72.5\ngini = 0.01\nsamples = 194\nvalue = [1, 310]\nclass = normal", fillcolor="#3a9de5"] ;
595 -> 596 ;
597 [label="gini = 0.0\nsamples = 187\nvalue = [0, 301]\nclass = normal", fillcolor="#399de5"] ;
596 -> 597 ;
598 [label="loser_attack <= 148.0\ngini = 0.18\nsamples = 7\nvalue = [1, 9]\nclass = normal", fillcolor="#4fa8e8"] ;
596 -> 598 ;
599 [label="gini = 0.0\nsamples = 1\nvalue = [1, 0]\nclass = attacker", fillcolor="#e58139"] ;
598 -> 599 ;
600 [label="gini = 0.0\nsamples = 6\nvalue = [0, 9]\nclass = normal", fillcolor="#399de5"] ;
598 -> 600 ;
601 [label="winner_attack <= 103.0\ngini = 0.27\nsamples = 26\nvalue = [6, 31]\nclass = normal", fillcolor="#5fb0ea"] ;
595 -> 601 ;
602 [label="gini = 0.0\nsamples = 1\nvalue = [1, 0]\nclass = attacker", fillcolor="#e58139"] ;
601 -> 602 ;
603 [label="winner_speed <= 99.5\ngini = 0.24\nsamples = 25\nvalue = [5, 31]\nclass = normal", fillcolor="#59ade9"] ;
601 -> 603 ;
604 [label="loser_speed <= 180.5\ngini = 0.46\nsamples = 9\nvalue = [4, 7]\nclass = normal", fillcolor="#aad5f4"] ;
603 -> 604 ;
605 [label="loser_type <= 8.5\ngini = 0.49\nsamples = 6\nvalue = [4, 3]\nclass = attacker", fillcolor="#f8e0ce"] ;
604 -> 605 ;
606 [label="gini = 0.0\nsamples = 3\nvalue = [4, 0]\nclass = attacker", fillcolor="#e58139"] ;
605 -> 606 ;
607 [label="gini = 0.0\nsamples = 3\nvalue = [0, 3]\nclass = normal", fillcolor="#399de5"] ;
605 -> 607 ;
608 [label="gini = 0.0\nsamples = 3\nvalue = [0, 4]\nclass = normal", fillcolor="#399de5"] ;
604 -> 608 ;
609 [label="winner_level <= 67.0\ngini = 0.08\nsamples = 16\nvalue = [1, 24]\nclass = normal", fillcolor="#41a1e6"] ;
603 -> 609 ;
610 [label="gini = 0.0\nsamples = 14\nvalue = [0, 23]\nclass = normal", fillcolor="#399de5"] ;
609 -> 610 ;
611 [label="loser_speed <= 244.5\ngini = 0.5\nsamples = 2\nvalue = [1, 1]\nclass = attacker", fillcolor="#ffffff"] ;
609 -> 611 ;
612 [label="gini = 0.0\nsamples = 1\nvalue = [1, 0]\nclass = attacker", fillcolor="#e58139"] ;
611 -> 612 ;
613 [label="gini = 0.0\nsamples = 1\nvalue = [0, 1]\nclass = normal", fillcolor="#399de5"] ;
611 -> 613 ;
614 [label="loser_hp <= 209.0\ngini = 0.36\nsamples = 31\nvalue = [11, 35]\nclass = normal", fillcolor="#77bced"] ;
566 -> 614 ;
615 [label="gini = 0.0\nsamples = 3\nvalue = [4, 0]\nclass = attacker", fillcolor="#e58139"] ;
614 -> 615 ;
616 [label="loser_attack <= 166.0\ngini = 0.28\nsamples = 28\nvalue = [7, 35]\nclass = normal", fillcolor="#61b1ea"] ;
614 -> 616 ;
617 [label="gini = 0.0\nsamples = 1\nvalue = [1, 0]\nclass = attacker", fillcolor="#e58139"] ;
616 -> 617 ;
618 [label="winner_defense <= 121.5\ngini = 0.25\nsamples = 27\nvalue = [6, 35]\nclass = normal", fillcolor="#5baee9"] ;
616 -> 618 ;
619 [label="gini = 0.0\nsamples = 1\nvalue = [1, 0]\nclass = attacker", fillcolor="#e58139"] ;
618 -> 619 ;
620 [label="winner_attack <= 183.0\ngini = 0.22\nsamples = 26\nvalue = [5, 35]\nclass = normal", fillcolor="#55abe9"] ;
618 -> 620 ;
621 [label="gini = 0.0\nsamples = 13\nvalue = [0, 19]\nclass = normal", fillcolor="#399de5"] ;
620 -> 621 ;
622 [label="loser_level <= 95.5\ngini = 0.36\nsamples = 13\nvalue = [5, 16]\nclass = normal", fillcolor="#77bced"] ;
620 -> 622 ;
623 [label="winner_hp <= 182.0\ngini = 0.27\nsamples = 12\nvalue = [3, 16]\nclass = normal", fillcolor="#5eafea"] ;
622 -> 623 ;
624 [label="gini = 0.0\nsamples = 1\nvalue = [2, 0]\nclass = attacker", fillcolor="#e58139"] ;
623 -> 624 ;
625 [label="loser_type <= 3.5\ngini = 0.11\nsamples = 11\nvalue = [1, 16]\nclass = normal", fillcolor="#45a3e7"] ;
623 -> 625 ;
626 [label="winner_attack <= 191.0\ngini = 0.28\nsamples = 4\nvalue = [1, 5]\nclass = normal", fillcolor="#61b1ea"] ;
625 -> 626 ;
627 [label="gini = 0.0\nsamples = 3\nvalue = [0, 5]\nclass = normal", fillcolor="#399de5"] ;
626 -> 627 ;
628 [label="gini = 0.0\nsamples = 1\nvalue = [1, 0]\nclass = attacker", fillcolor="#e58139"] ;
626 -> 628 ;
629 [label="gini = 0.0\nsamples = 7\nvalue = [0, 11]\nclass = normal", fillcolor="#399de5"] ;
625 -> 629 ;
630 [label="gini = 0.0\nsamples = 1\nvalue = [2, 0]\nclass = attacker", fillcolor="#e58139"] ;
622 -> 630 ;
631 [label="gini = 0.0\nsamples = 3\nvalue = [4, 0]\nclass = attacker", fillcolor="#e58139"] ;
565 -> 631 ;
632 [label="gini = 0.0\nsamples = 1\nvalue = [2, 0]\nclass = attacker", fillcolor="#e58139"] ;
564 -> 632 ;
633 [label="loser_attack <= 154.5\ngini = 0.46\nsamples = 250\nvalue = [155, 268]\nclass = normal", fillcolor="#acd6f4"] ;
539 -> 633 ;
634 [label="winner_defense <= 179.5\ngini = 0.41\nsamples = 60\nvalue = [75, 30]\nclass = attacker", fillcolor="#efb388"] ;
633 -> 634 ;
635 [label="loser_speed <= 210.0\ngini = 0.49\nsamples = 41\nvalue = [37, 29]\nclass = attacker", fillcolor="#f9e4d4"] ;
634 -> 635 ;
636 [label="loser_defense <= 167.5\ngini = 0.47\nsamples = 33\nvalue = [36, 21]\nclass = attacker", fillcolor="#f4caac"] ;
635 -> 636 ;
637 [label="loser_speed <= 93.5\ngini = 0.28\nsamples = 22\nvalue = [29, 6]\nclass = attacker", fillcolor="#ea9b62"] ;
636 -> 637 ;
638 [label="gini = 0.0\nsamples = 1\nvalue = [0, 3]\nclass = normal", fillcolor="#399de5"] ;
637 -> 638 ;
639 [label="loser_speed <= 181.5\ngini = 0.17\nsamples = 21\nvalue = [29, 3]\nclass = attacker", fillcolor="#e88e4d"] ;
637 -> 639 ;
640 [label="loser_attack <= 140.5\ngini = 0.07\nsamples = 19\nvalue = [27, 1]\nclass = attacker", fillcolor="#e68640"] ;
639 -> 640 ;
641 [label="gini = 0.0\nsamples = 13\nvalue = [19, 0]\nclass = attacker", fillcolor="#e58139"] ;
640 -> 641 ;
642 [label="loser_level <= 89.5\ngini = 0.2\nsamples = 6\nvalue = [8, 1]\nclass = attacker", fillcolor="#e89152"] ;
640 -> 642 ;
643 [label="gini = 0.0\nsamples = 5\nvalue = [8, 0]\nclass = attacker", fillcolor="#e58139"] ;
642 -> 643 ;
644 [label="gini = 0.0\nsamples = 1\nvalue = [0, 1]\nclass = normal", fillcolor="#399de5"] ;
642 -> 644 ;
645 [label="winner_speed <= 160.0\ngini = 0.5\nsamples = 2\nvalue = [2, 2]\nclass = attacker", fillcolor="#ffffff"] ;
639 -> 645 ;
646 [label="gini = 0.0\nsamples = 1\nvalue = [0, 2]\nclass = normal", fillcolor="#399de5"] ;
645 -> 646 ;
647 [label="gini = 0.0\nsamples = 1\nvalue = [2, 0]\nclass = attacker", fillcolor="#e58139"] ;
645 -> 647 ;
648 [label="loser_level <= 76.0\ngini = 0.43\nsamples = 11\nvalue = [7, 15]\nclass = normal", fillcolor="#95cbf1"] ;
636 -> 648 ;
649 [label="gini = 0.0\nsamples = 7\nvalue = [0, 13]\nclass = normal", fillcolor="#399de5"] ;
648 -> 649 ;
650 [label="loser_hp <= 256.0\ngini = 0.35\nsamples = 4\nvalue = [7, 2]\nclass = attacker", fillcolor="#eca572"] ;
648 -> 650 ;
651 [label="gini = 0.0\nsamples = 3\nvalue = [7, 0]\nclass = attacker", fillcolor="#e58139"] ;
650 -> 651 ;
652 [label="gini = 0.0\nsamples = 1\nvalue = [0, 2]\nclass = normal", fillcolor="#399de5"] ;
650 -> 652 ;
653 [label="loser_defense <= 124.5\ngini = 0.2\nsamples = 8\nvalue = [1, 8]\nclass = normal", fillcolor="#52a9e8"] ;
635 -> 653 ;
654 [label="winner_type <= 11.0\ngini = 0.5\nsamples = 2\nvalue = [1, 1]\nclass = attacker", fillcolor="#ffffff"] ;
653 -> 654 ;
655 [label="gini = 0.0\nsamples = 1\nvalue = [0, 1]\nclass = normal", fillcolor="#399de5"] ;
654 -> 655 ;
656 [label="gini = 0.0\nsamples = 1\nvalue = [1, 0]\nclass = attacker", fillcolor="#e58139"] ;
654 -> 656 ;
657 [label="gini = 0.0\nsamples = 6\nvalue = [0, 7]\nclass = normal", fillcolor="#399de5"] ;
653 -> 657 ;
658 [label="winner_hp <= 220.0\ngini = 0.05\nsamples = 19\nvalue = [38, 1]\nclass = attacker", fillcolor="#e6843e"] ;
634 -> 658 ;
659 [label="winner_defense <= 206.0\ngini = 0.12\nsamples = 8\nvalue = [14, 1]\nclass = attacker", fillcolor="#e78a47"] ;
658 -> 659 ;
660 [label="gini = 0.0\nsamples = 1\nvalue = [0, 1]\nclass = normal", fillcolor="#399de5"] ;
659 -> 660 ;
661 [label="gini = 0.0\nsamples = 7\nvalue = [14, 0]\nclass = attacker", fillcolor="#e58139"] ;
659 -> 661 ;
662 [label="gini = 0.0\nsamples = 11\nvalue = [24, 0]\nclass = attacker", fillcolor="#e58139"] ;
658 -> 662 ;
663 [label="winner_type <= 1.5\ngini = 0.38\nsamples = 190\nvalue = [80, 238]\nclass = normal", fillcolor="#7cbeee"] ;
633 -> 663 ;
664 [label="loser_defense <= 143.0\ngini = 0.08\nsamples = 30\nvalue = [2, 49]\nclass = normal", fillcolor="#41a1e6"] ;
663 -> 664 ;
665 [label="winner_hp <= 226.0\ngini = 0.38\nsamples = 3\nvalue = [1, 3]\nclass = normal", fillcolor="#7bbeee"] ;
664 -> 665 ;
666 [label="gini = 0.0\nsamples = 1\nvalue = [1, 0]\nclass = attacker", fillcolor="#e58139"] ;
665 -> 666 ;
667 [label="gini = 0.0\nsamples = 2\nvalue = [0, 3]\nclass = normal", fillcolor="#399de5"] ;
665 -> 667 ;
668 [label="winner_hp <= 230.5\ngini = 0.04\nsamples = 27\nvalue = [1, 46]\nclass = normal", fillcolor="#3d9fe6"] ;
664 -> 668 ;
669 [label="gini = 0.0\nsamples = 14\nvalue = [0, 25]\nclass = normal", fillcolor="#399de5"] ;
668 -> 669 ;
670 [label="loser_speed <= 131.0\ngini = 0.09\nsamples = 13\nvalue = [1, 21]\nclass = normal", fillcolor="#42a2e6"] ;
668 -> 670 ;
671 [label="winner_attack <= 157.5\ngini = 0.5\nsamples = 2\nvalue = [1, 1]\nclass = attacker", fillcolor="#ffffff"] ;
670 -> 671 ;
672 [label="gini = 0.0\nsamples = 1\nvalue = [0, 1]\nclass = normal", fillcolor="#399de5"] ;
671 -> 672 ;
673 [label="gini = 0.0\nsamples = 1\nvalue = [1, 0]\nclass = attacker", fillcolor="#e58139"] ;
671 -> 673 ;
674 [label="gini = 0.0\nsamples = 11\nvalue = [0, 20]\nclass = normal", fillcolor="#399de5"] ;
670 -> 674 ;
675 [label="loser_attack <= 211.5\ngini = 0.41\nsamples = 160\nvalue = [78, 189]\nclass = normal", fillcolor="#8bc5f0"] ;
663 -> 675 ;
676 [label="loser_defense <= 185.5\ngini = 0.49\nsamples = 94\nvalue = [63, 88]\nclass = normal", fillcolor="#c7e3f8"] ;
675 -> 676 ;
677 [label="loser_speed <= 140.0\ngini = 0.5\nsamples = 69\nvalue = [57, 59]\nclass = normal", fillcolor="#f8fcfe"] ;
676 -> 677 ;
678 [label="gini = 0.0\nsamples = 7\nvalue = [15, 0]\nclass = attacker", fillcolor="#e58139"] ;
677 -> 678 ;
679 [label="winner_speed <= 130.5\ngini = 0.49\nsamples = 62\nvalue = [42, 59]\nclass = normal", fillcolor="#c6e3f8"] ;
677 -> 679 ;
680 [label="winner_defense <= 194.0\ngini = 0.33\nsamples = 12\nvalue = [4, 15]\nclass = normal", fillcolor="#6eb7ec"] ;
679 -> 680 ;
681 [label="winner_speed <= 94.5\ngini = 0.13\nsamples = 9\nvalue = [1, 13]\nclass = normal", fillcolor="#48a5e7"] ;
680 -> 681 ;
682 [label="gini = 0.0\nsamples = 1\nvalue = [1, 0]\nclass = attacker", fillcolor="#e58139"] ;
681 -> 682 ;
683 [label="gini = 0.0\nsamples = 8\nvalue = [0, 13]\nclass = normal", fillcolor="#399de5"] ;
681 -> 683 ;
684 [label="winner_hp <= 212.5\ngini = 0.48\nsamples = 3\nvalue = [3, 2]\nclass = attacker", fillcolor="#f6d5bd"] ;
680 -> 684 ;
685 [label="gini = 0.0\nsamples = 2\nvalue = [0, 2]\nclass = normal", fillcolor="#399de5"] ;
684 -> 685 ;
686 [label="gini = 0.0\nsamples = 1\nvalue = [3, 0]\nclass = attacker", fillcolor="#e58139"] ;
684 -> 686 ;
687 [label="loser_defense <= 182.5\ngini = 0.5\nsamples = 50\nvalue = [38, 44]\nclass = normal", fillcolor="#e4f2fb"] ;
679 -> 687 ;
688 [label="loser_attack <= 179.5\ngini = 0.48\nsamples = 47\nvalue = [29, 44]\nclass = normal", fillcolor="#bcdef6"] ;
687 -> 688 ;
689 [label="loser_hp <= 271.5\ngini = 0.41\nsamples = 25\nvalue = [12, 29]\nclass = normal", fillcolor="#8bc6f0"] ;
688 -> 689 ;
690 [label="winner_type <= 7.5\ngini = 0.35\nsamples = 21\nvalue = [8, 28]\nclass = normal", fillcolor="#72b9ec"] ;
689 -> 690 ;
691 [label="loser_type <= 2.5\ngini = 0.45\nsamples = 11\nvalue = [7, 13]\nclass = normal", fillcolor="#a4d2f3"] ;
690 -> 691 ;
692 [label="gini = 0.0\nsamples = 2\nvalue = [0, 6]\nclass = normal", fillcolor="#399de5"] ;
691 -> 692 ;
693 [label="loser_hp <= 245.5\ngini = 0.5\nsamples = 9\nvalue = [7, 7]\nclass = attacker", fillcolor="#ffffff"] ;
691 -> 693 ;
694 [label="loser_type <= 4.5\ngini = 0.42\nsamples = 7\nvalue = [7, 3]\nclass = attacker", fillcolor="#f0b78e"] ;
693 -> 694 ;
695 [label="loser_speed <= 156.5\ngini = 0.5\nsamples = 4\nvalue = [3, 3]\nclass = attacker", fillcolor="#ffffff"] ;
694 -> 695 ;
696 [label="gini = 0.0\nsamples = 2\nvalue = [0, 3]\nclass = normal", fillcolor="#399de5"] ;
695 -> 696 ;
697 [label="gini = 0.0\nsamples = 2\nvalue = [3, 0]\nclass = attacker", fillcolor="#e58139"] ;
695 -> 697 ;
698 [label="gini = 0.0\nsamples = 3\nvalue = [4, 0]\nclass = attacker", fillcolor="#e58139"] ;
694 -> 698 ;
699 [label="gini = 0.0\nsamples = 2\nvalue = [0, 4]\nclass = normal", fillcolor="#399de5"] ;
693 -> 699 ;
700 [label="winner_hp <= 238.0\ngini = 0.12\nsamples = 10\nvalue = [1, 15]\nclass = normal", fillcolor="#46a4e7"] ;
690 -> 700 ;
701 [label="gini = 0.0\nsamples = 7\nvalue = [0, 11]\nclass = normal", fillcolor="#399de5"] ;
700 -> 701 ;
702 [label="winner_hp <= 241.5\ngini = 0.32\nsamples = 3\nvalue = [1, 4]\nclass = normal", fillcolor="#6ab6ec"] ;
700 -> 702 ;
703 [label="gini = 0.0\nsamples = 1\nvalue = [1, 0]\nclass = attacker", fillcolor="#e58139"] ;
702 -> 703 ;
704 [label="gini = 0.0\nsamples = 2\nvalue = [0, 4]\nclass = normal", fillcolor="#399de5"] ;
702 -> 704 ;
705 [label="winner_hp <= 216.0\ngini = 0.32\nsamples = 4\nvalue = [4, 1]\nclass = attacker", fillcolor="#eca06a"] ;
689 -> 705 ;
706 [label="gini = 0.0\nsamples = 1\nvalue = [0, 1]\nclass = normal", fillcolor="#399de5"] ;
705 -> 706 ;
707 [label="gini = 0.0\nsamples = 3\nvalue = [4, 0]\nclass = attacker", fillcolor="#e58139"] ;
705 -> 707 ;
708 [label="winner_hp <= 222.5\ngini = 0.5\nsamples = 22\nvalue = [17, 15]\nclass = attacker", fillcolor="#fcf0e8"] ;
688 -> 708 ;
709 [label="loser_speed <= 161.5\ngini = 0.36\nsamples = 11\nvalue = [13, 4]\nclass = attacker", fillcolor="#eda876"] ;
708 -> 709 ;
710 [label="gini = 0.0\nsamples = 1\nvalue = [0, 1]\nclass = normal", fillcolor="#399de5"] ;
709 -> 710 ;
711 [label="winner_attack <= 131.0\ngini = 0.3\nsamples = 10\nvalue = [13, 3]\nclass = attacker", fillcolor="#eb9e67"] ;
709 -> 711 ;
712 [label="gini = 0.0\nsamples = 2\nvalue = [0, 2]\nclass = normal", fillcolor="#399de5"] ;
711 -> 712 ;
713 [label="loser_type <= 11.5\ngini = 0.13\nsamples = 8\nvalue = [13, 1]\nclass = attacker", fillcolor="#e78b48"] ;
711 -> 713 ;
714 [label="gini = 0.0\nsamples = 7\nvalue = [13, 0]\nclass = attacker", fillcolor="#e58139"] ;
713 -> 714 ;
715 [label="gini = 0.0\nsamples = 1\nvalue = [0, 1]\nclass = normal", fillcolor="#399de5"] ;
713 -> 715 ;
716 [label="loser_level <= 86.5\ngini = 0.39\nsamples = 11\nvalue = [4, 11]\nclass = normal", fillcolor="#81c1ee"] ;
708 -> 716 ;
717 [label="gini = 0.0\nsamples = 4\nvalue = [0, 6]\nclass = normal", fillcolor="#399de5"] ;
716 -> 717 ;
718 [label="winner_defense <= 160.5\ngini = 0.49\nsamples = 7\nvalue = [4, 5]\nclass = normal", fillcolor="#d7ebfa"] ;
716 -> 718 ;
719 [label="gini = 0.0\nsamples = 3\nvalue = [0, 4]\nclass = normal", fillcolor="#399de5"] ;
718 -> 719 ;
720 [label="loser_attack <= 190.5\ngini = 0.32\nsamples = 4\nvalue = [4, 1]\nclass = attacker", fillcolor="#eca06a"] ;
718 -> 720 ;
721 [label="gini = 0.0\nsamples = 3\nvalue = [4, 0]\nclass = attacker", fillcolor="#e58139"] ;
720 -> 721 ;
722 [label="gini = 0.0\nsamples = 1\nvalue = [0, 1]\nclass = normal", fillcolor="#399de5"] ;
720 -> 722 ;
723 [label="gini = 0.0\nsamples = 3\nvalue = [9, 0]\nclass = attacker", fillcolor="#e58139"] ;
687 -> 723 ;
724 [label="loser_speed <= 143.5\ngini = 0.28\nsamples = 25\nvalue = [6, 29]\nclass = normal", fillcolor="#62b1ea"] ;
676 -> 724 ;
725 [label="winner_speed <= 179.0\ngini = 0.44\nsamples = 12\nvalue = [6, 12]\nclass = normal", fillcolor="#9ccef2"] ;
724 -> 725 ;
726 [label="loser_type <= 11.0\ngini = 0.32\nsamples = 11\nvalue = [3, 12]\nclass = normal", fillcolor="#6ab6ec"] ;
725 -> 726 ;
727 [label="winner_attack <= 132.0\ngini = 0.4\nsamples = 9\nvalue = [3, 8]\nclass = normal", fillcolor="#83c2ef"] ;
726 -> 727 ;
728 [label="gini = 0.0\nsamples = 1\nvalue = [0, 3]\nclass = normal", fillcolor="#399de5"] ;
727 -> 728 ;
729 [label="loser_defense <= 247.5\ngini = 0.47\nsamples = 8\nvalue = [3, 5]\nclass = normal", fillcolor="#b0d8f5"] ;
727 -> 729 ;
730 [label="winner_hp <= 244.0\ngini = 0.41\nsamples = 7\nvalue = [2, 5]\nclass = normal", fillcolor="#88c4ef"] ;
729 -> 730 ;
731 [label="winner_attack <= 147.0\ngini = 0.28\nsamples = 6\nvalue = [1, 5]\nclass = normal", fillcolor="#61b1ea"] ;
730 -> 731 ;
732 [label="gini = 0.0\nsamples = 1\nvalue = [1, 0]\nclass = attacker", fillcolor="#e58139"] ;
731 -> 732 ;
733 [label="gini = 0.0\nsamples = 5\nvalue = [0, 5]\nclass = normal", fillcolor="#399de5"] ;
731 -> 733 ;
734 [label="gini = 0.0\nsamples = 1\nvalue = [1, 0]\nclass = attacker", fillcolor="#e58139"] ;
730 -> 734 ;
735 [label="gini = 0.0\nsamples = 1\nvalue = [1, 0]\nclass = attacker", fillcolor="#e58139"] ;
729 -> 735 ;
736 [label="gini = 0.0\nsamples = 2\nvalue = [0, 4]\nclass = normal", fillcolor="#399de5"] ;
726 -> 736 ;
737 [label="gini = 0.0\nsamples = 1\nvalue = [3, 0]\nclass = attacker", fillcolor="#e58139"] ;
725 -> 737 ;
738 [label="gini = 0.0\nsamples = 13\nvalue = [0, 17]\nclass = normal", fillcolor="#399de5"] ;
724 -> 738 ;
739 [label="loser_type <= 4.5\ngini = 0.23\nsamples = 66\nvalue = [15, 101]\nclass = normal", fillcolor="#56ace9"] ;
675 -> 739 ;
740 [label="loser_defense <= 202.5\ngini = 0.38\nsamples = 31\nvalue = [12, 35]\nclass = normal", fillcolor="#7dbfee"] ;
739 -> 740 ;
741 [label="loser_attack <= 257.0\ngini = 0.5\nsamples = 17\nvalue = [11, 13]\nclass = normal", fillcolor="#e1f0fb"] ;
740 -> 741 ;
742 [label="loser_hp <= 311.0\ngini = 0.44\nsamples = 12\nvalue = [10, 5]\nclass = attacker", fillcolor="#f2c09c"] ;
741 -> 742 ;
743 [label="winner_hp <= 209.5\ngini = 0.36\nsamples = 10\nvalue = [10, 3]\nclass = attacker", fillcolor="#eda774"] ;
742 -> 743 ;
744 [label="gini = 0.0\nsamples = 2\nvalue = [0, 2]\nclass = normal", fillcolor="#399de5"] ;
743 -> 744 ;
745 [label="winner_hp <= 239.5\ngini = 0.17\nsamples = 8\nvalue = [10, 1]\nclass = attacker", fillcolor="#e88e4d"] ;
743 -> 745 ;
746 [label="gini = 0.0\nsamples = 6\nvalue = [9, 0]\nclass = attacker", fillcolor="#e58139"] ;
745 -> 746 ;
747 [label="loser_level <= 94.5\ngini = 0.5\nsamples = 2\nvalue = [1, 1]\nclass = attacker", fillcolor="#ffffff"] ;
745 -> 747 ;
748 [label="gini = 0.0\nsamples = 1\nvalue = [0, 1]\nclass = normal", fillcolor="#399de5"] ;
747 -> 748 ;
749 [label="gini = 0.0\nsamples = 1\nvalue = [1, 0]\nclass = attacker", fillcolor="#e58139"] ;
747 -> 749 ;
750 [label="gini = 0.0\nsamples = 2\nvalue = [0, 2]\nclass = normal", fillcolor="#399de5"] ;
742 -> 750 ;
751 [label="loser_hp <= 311.0\ngini = 0.2\nsamples = 5\nvalue = [1, 8]\nclass = normal", fillcolor="#52a9e8"] ;
741 -> 751 ;
752 [label="gini = 0.0\nsamples = 3\nvalue = [0, 7]\nclass = normal", fillcolor="#399de5"] ;
751 -> 752 ;
753 [label="loser_attack <= 264.0\ngini = 0.5\nsamples = 2\nvalue = [1, 1]\nclass = attacker", fillcolor="#ffffff"] ;
751 -> 753 ;
754 [label="gini = 0.0\nsamples = 1\nvalue = [1, 0]\nclass = attacker", fillcolor="#e58139"] ;
753 -> 754 ;
755 [label="gini = 0.0\nsamples = 1\nvalue = [0, 1]\nclass = normal", fillcolor="#399de5"] ;
753 -> 755 ;
756 [label="loser_level <= 94.5\ngini = 0.08\nsamples = 14\nvalue = [1, 22]\nclass = normal", fillcolor="#42a1e6"] ;
740 -> 756 ;
757 [label="gini = 0.0\nsamples = 10\nvalue = [0, 17]\nclass = normal", fillcolor="#399de5"] ;
756 -> 757 ;
758 [label="winner_attack <= 217.5\ngini = 0.28\nsamples = 4\nvalue = [1, 5]\nclass = normal", fillcolor="#61b1ea"] ;
756 -> 758 ;
759 [label="gini = 0.0\nsamples = 3\nvalue = [0, 5]\nclass = normal", fillcolor="#399de5"] ;
758 -> 759 ;
760 [label="gini = 0.0\nsamples = 1\nvalue = [1, 0]\nclass = attacker", fillcolor="#e58139"] ;
758 -> 760 ;
761 [label="loser_level <= 74.0\ngini = 0.08\nsamples = 35\nvalue = [3, 66]\nclass = normal", fillcolor="#42a1e6"] ;
739 -> 761 ;
762 [label="winner_attack <= 127.0\ngini = 0.49\nsamples = 4\nvalue = [3, 4]\nclass = normal", fillcolor="#cee6f8"] ;
761 -> 762 ;
763 [label="gini = 0.0\nsamples = 1\nvalue = [0, 3]\nclass = normal", fillcolor="#399de5"] ;
762 -> 763 ;
764 [label="winner_hp <= 228.5\ngini = 0.38\nsamples = 3\nvalue = [3, 1]\nclass = attacker", fillcolor="#eeab7b"] ;
762 -> 764 ;
765 [label="gini = 0.0\nsamples = 1\nvalue = [0, 1]\nclass = normal", fillcolor="#399de5"] ;
764 -> 765 ;
766 [label="gini = 0.0\nsamples = 2\nvalue = [3, 0]\nclass = attacker", fillcolor="#e58139"] ;
764 -> 766 ;
767 [label="gini = 0.0\nsamples = 31\nvalue = [0, 62]\nclass = normal", fillcolor="#399de5"] ;
761 -> 767 ;
768 [label="loser_attack <= 215.5\ngini = 0.44\nsamples = 332\nvalue = [345, 164]\nclass = attacker", fillcolor="#f1bd97"] ;
538 -> 768 ;
769 [label="winner_defense <= 143.5\ngini = 0.28\nsamples = 229\nvalue = [296, 61]\nclass = attacker", fillcolor="#ea9b62"] ;
768 -> 769 ;
770 [label="loser_level <= 69.0\ngini = 0.46\nsamples = 15\nvalue = [8, 14]\nclass = normal", fillcolor="#aad5f4"] ;
769 -> 770 ;
771 [label="gini = 0.0\nsamples = 2\nvalue = [5, 0]\nclass = attacker", fillcolor="#e58139"] ;
770 -> 771 ;
772 [label="loser_level <= 79.0\ngini = 0.29\nsamples = 13\nvalue = [3, 14]\nclass = normal", fillcolor="#63b2eb"] ;
770 -> 772 ;
773 [label="loser_level <= 75.0\ngini = 0.44\nsamples = 6\nvalue = [3, 6]\nclass = normal", fillcolor="#9ccef2"] ;
772 -> 773 ;
774 [label="gini = 0.0\nsamples = 3\nvalue = [0, 5]\nclass = normal", fillcolor="#399de5"] ;
773 -> 774 ;
775 [label="loser_type <= 2.5\ngini = 0.38\nsamples = 3\nvalue = [3, 1]\nclass = attacker", fillcolor="#eeab7b"] ;
773 -> 775 ;
776 [label="gini = 0.0\nsamples = 1\nvalue = [0, 1]\nclass = normal", fillcolor="#399de5"] ;
775 -> 776 ;
777 [label="gini = 0.0\nsamples = 2\nvalue = [3, 0]\nclass = attacker", fillcolor="#e58139"] ;
775 -> 777 ;
778 [label="gini = 0.0\nsamples = 7\nvalue = [0, 8]\nclass = normal", fillcolor="#399de5"] ;
772 -> 778 ;
779 [label="loser_defense <= 179.5\ngini = 0.24\nsamples = 214\nvalue = [288, 47]\nclass = attacker", fillcolor="#e99659"] ;
769 -> 779 ;
780 [label="winner_defense <= 177.5\ngini = 0.17\nsamples = 155\nvalue = [217, 23]\nclass = attacker", fillcolor="#e88e4e"] ;
779 -> 780 ;
781 [label="loser_speed <= 194.5\ngini = 0.3\nsamples = 46\nvalue = [62, 14]\nclass = attacker", fillcolor="#eb9d66"] ;
780 -> 781 ;
782 [label="loser_type <= 13.5\ngini = 0.16\nsamples = 34\nvalue = [53, 5]\nclass = attacker", fillcolor="#e78d4c"] ;
781 -> 782 ;
783 [label="loser_speed <= 115.5\ngini = 0.13\nsamples = 33\nvalue = [53, 4]\nclass = attacker", fillcolor="#e78b48"] ;
782 -> 783 ;
784 [label="loser_speed <= 102.0\ngini = 0.5\nsamples = 2\nvalue = [2, 2]\nclass = attacker", fillcolor="#ffffff"] ;
783 -> 784 ;
785 [label="gini = 0.0\nsamples = 1\nvalue = [2, 0]\nclass = attacker", fillcolor="#e58139"] ;
784 -> 785 ;
786 [label="gini = 0.0\nsamples = 1\nvalue = [0, 2]\nclass = normal", fillcolor="#399de5"] ;
784 -> 786 ;
787 [label="loser_attack <= 195.0\ngini = 0.07\nsamples = 31\nvalue = [51, 2]\nclass = attacker", fillcolor="#e68641"] ;
783 -> 787 ;
788 [label="gini = 0.0\nsamples = 28\nvalue = [50, 0]\nclass = attacker", fillcolor="#e58139"] ;
787 -> 788 ;
789 [label="winner_speed <= 132.0\ngini = 0.44\nsamples = 3\nvalue = [1, 2]\nclass = normal", fillcolor="#9ccef2"] ;
787 -> 789 ;
790 [label="gini = 0.0\nsamples = 1\nvalue = [1, 0]\nclass = attacker", fillcolor="#e58139"] ;
789 -> 790 ;
791 [label="gini = 0.0\nsamples = 2\nvalue = [0, 2]\nclass = normal", fillcolor="#399de5"] ;
789 -> 791 ;
792 [label="gini = 0.0\nsamples = 1\nvalue = [0, 1]\nclass = normal", fillcolor="#399de5"] ;
782 -> 792 ;
793 [label="loser_hp <= 249.0\ngini = 0.5\nsamples = 12\nvalue = [9, 9]\nclass = attacker", fillcolor="#ffffff"] ;
781 -> 793 ;
794 [label="loser_attack <= 162.5\ngini = 0.3\nsamples = 9\nvalue = [9, 2]\nclass = attacker", fillcolor="#eb9d65"] ;
793 -> 794 ;
795 [label="gini = 0.0\nsamples = 4\nvalue = [5, 0]\nclass = attacker", fillcolor="#e58139"] ;
794 -> 795 ;
796 [label="loser_attack <= 190.5\ngini = 0.44\nsamples = 5\nvalue = [4, 2]\nclass = attacker", fillcolor="#f2c09c"] ;
794 -> 796 ;
797 [label="gini = 0.0\nsamples = 2\nvalue = [0, 2]\nclass = normal", fillcolor="#399de5"] ;
796 -> 797 ;
798 [label="gini = 0.0\nsamples = 3\nvalue = [4, 0]\nclass = attacker", fillcolor="#e58139"] ;
796 -> 798 ;
799 [label="gini = 0.0\nsamples = 3\nvalue = [0, 7]\nclass = normal", fillcolor="#399de5"] ;
793 -> 799 ;
800 [label="loser_attack <= 175.5\ngini = 0.1\nsamples = 109\nvalue = [155, 9]\nclass = attacker", fillcolor="#e78844"] ;
780 -> 800 ;
801 [label="loser_level <= 80.5\ngini = 0.07\nsamples = 90\nvalue = [134, 5]\nclass = attacker", fillcolor="#e68640"] ;
800 -> 801 ;
802 [label="loser_defense <= 162.0\ngini = 0.02\nsamples = 67\nvalue = [103, 1]\nclass = attacker", fillcolor="#e5823b"] ;
801 -> 802 ;
803 [label="gini = 0.0\nsamples = 55\nvalue = [85, 0]\nclass = attacker", fillcolor="#e58139"] ;
802 -> 803 ;
804 [label="loser_attack <= 114.0\ngini = 0.1\nsamples = 12\nvalue = [18, 1]\nclass = attacker", fillcolor="#e68844"] ;
802 -> 804 ;
805 [label="gini = 0.0\nsamples = 1\nvalue = [0, 1]\nclass = normal", fillcolor="#399de5"] ;
804 -> 805 ;
806 [label="gini = 0.0\nsamples = 11\nvalue = [18, 0]\nclass = attacker", fillcolor="#e58139"] ;
804 -> 806 ;
807 [label="loser_hp <= 221.5\ngini = 0.2\nsamples = 23\nvalue = [31, 4]\nclass = attacker", fillcolor="#e89153"] ;
801 -> 807 ;
808 [label="gini = 0.0\nsamples = 1\nvalue = [0, 1]\nclass = normal", fillcolor="#399de5"] ;
807 -> 808 ;
809 [label="winner_hp <= 259.5\ngini = 0.16\nsamples = 22\nvalue = [31, 3]\nclass = attacker", fillcolor="#e88d4c"] ;
807 -> 809 ;
810 [label="gini = 0.0\nsamples = 1\nvalue = [0, 1]\nclass = normal", fillcolor="#399de5"] ;
809 -> 810 ;
811 [label="winner_speed <= 232.5\ngini = 0.11\nsamples = 21\nvalue = [31, 2]\nclass = attacker", fillcolor="#e78946"] ;
809 -> 811 ;
812 [label="winner_level <= 94.5\ngini = 0.07\nsamples = 17\nvalue = [27, 1]\nclass = attacker", fillcolor="#e68640"] ;
811 -> 812 ;
813 [label="gini = 0.0\nsamples = 11\nvalue = [18, 0]\nclass = attacker", fillcolor="#e58139"] ;
812 -> 813 ;
814 [label="loser_type <= 7.5\ngini = 0.18\nsamples = 6\nvalue = [9, 1]\nclass = attacker", fillcolor="#e88f4f"] ;
812 -> 814 ;
815 [label="loser_attack <= 150.5\ngini = 0.44\nsamples = 2\nvalue = [2, 1]\nclass = attacker", fillcolor="#f2c09c"] ;
814 -> 815 ;
816 [label="gini = 0.0\nsamples = 1\nvalue = [0, 1]\nclass = normal", fillcolor="#399de5"] ;
815 -> 816 ;
817 [label="gini = 0.0\nsamples = 1\nvalue = [2, 0]\nclass = attacker", fillcolor="#e58139"] ;
815 -> 817 ;
818 [label="gini = 0.0\nsamples = 4\nvalue = [7, 0]\nclass = attacker", fillcolor="#e58139"] ;
814 -> 818 ;
819 [label="loser_attack <= 153.0\ngini = 0.32\nsamples = 4\nvalue = [4, 1]\nclass = attacker", fillcolor="#eca06a"] ;
811 -> 819 ;
820 [label="gini = 0.0\nsamples = 3\nvalue = [4, 0]\nclass = attacker", fillcolor="#e58139"] ;
819 -> 820 ;
821 [label="gini = 0.0\nsamples = 1\nvalue = [0, 1]\nclass = normal", fillcolor="#399de5"] ;
819 -> 821 ;
822 [label="winner_hp <= 274.0\ngini = 0.27\nsamples = 19\nvalue = [21, 4]\nclass = attacker", fillcolor="#ea995f"] ;
800 -> 822 ;
823 [label="winner_level <= 79.0\ngini = 0.38\nsamples = 3\nvalue = [1, 3]\nclass = normal", fillcolor="#7bbeee"] ;
822 -> 823 ;
824 [label="gini = 0.0\nsamples = 1\nvalue = [0, 2]\nclass = normal", fillcolor="#399de5"] ;
823 -> 824 ;
825 [label="winner_level <= 84.0\ngini = 0.5\nsamples = 2\nvalue = [1, 1]\nclass = attacker", fillcolor="#ffffff"] ;
823 -> 825 ;
826 [label="gini = 0.0\nsamples = 1\nvalue = [1, 0]\nclass = attacker", fillcolor="#e58139"] ;
825 -> 826 ;
827 [label="gini = 0.0\nsamples = 1\nvalue = [0, 1]\nclass = normal", fillcolor="#399de5"] ;
825 -> 827 ;
828 [label="loser_type <= 1.5\ngini = 0.09\nsamples = 16\nvalue = [20, 1]\nclass = attacker", fillcolor="#e68743"] ;
822 -> 828 ;
829 [label="winner_attack <= 254.5\ngini = 0.5\nsamples = 2\nvalue = [1, 1]\nclass = attacker", fillcolor="#ffffff"] ;
828 -> 829 ;
830 [label="gini = 0.0\nsamples = 1\nvalue = [0, 1]\nclass = normal", fillcolor="#399de5"] ;
829 -> 830 ;
831 [label="gini = 0.0\nsamples = 1\nvalue = [1, 0]\nclass = attacker", fillcolor="#e58139"] ;
829 -> 831 ;
832 [label="gini = 0.0\nsamples = 14\nvalue = [19, 0]\nclass = attacker", fillcolor="#e58139"] ;
828 -> 832 ;
833 [label="winner_hp <= 263.5\ngini = 0.38\nsamples = 59\nvalue = [71, 24]\nclass = attacker", fillcolor="#eeac7c"] ;
779 -> 833 ;
834 [label="loser_attack <= 177.5\ngini = 0.42\nsamples = 7\nvalue = [3, 7]\nclass = normal", fillcolor="#8ec7f0"] ;
833 -> 834 ;
835 [label="loser_speed <= 139.5\ngini = 0.22\nsamples = 5\nvalue = [1, 7]\nclass = normal", fillcolor="#55abe9"] ;
834 -> 835 ;
836 [label="winner_speed <= 191.5\ngini = 0.5\nsamples = 2\nvalue = [1, 1]\nclass = attacker", fillcolor="#ffffff"] ;
835 -> 836 ;
